{"learner":{"attributes":{},"feature_names":[],"feature_types":[],"gradient_booster":{"model":{"gbtree_model_param":{"num_parallel_tree":"1","num_trees":"300"},"iteration_indptr":[0,1,2,3,4,5,6,7,8,9,10,11,12,13,14,15,16,17,18,19,20,21,22,23,24,25,26,27,28,29,30,31,32,33,34,35,36,37,38,39,40,41,42,43,44,45,46,47,48,49,50,51,52,53,54,55,56,57,58,59,60,61,62,63,64,65,66,67,68,69,70,71,72,73,74,75,76,77,78,79,80,81,82,83,84,85,86,87,88,89,90,91,92,93,94,95,96,97,98,99,100,101,102,103,104,105,106,107,108,109,110,111,112,113,114,115,116,117,118,119,120,121,122,123,124,125,126,127,128,129,130,131,132,133,134,135,136,137,138,139,140,141,142,143,144,145,146,147,148,149,150,151,152,153,154,155,156,157,158,159,160,161,162,163,164,165,166,167,168,169,170,171,172,173,174,175,176,177,178,179,180,181,182,183,184,185,186,187,188,189,190,191,192,193,194,195,196,197,198,199,200,201,202,203,204,205,206,207,208,209,210,211,212,213,214,215,216,217,218,219,220,221,222,223,224,225,226,227,228,229,230,231,232,233,234,235,236,237,238,239,240,241,242,243,244,245,246,247,248,249,250,251,252,253,254,255,256,257,258,259,260,261,262,263,264,265,266,267,268,269,270,271,272,273,274,275,276,277,278,279,280,281,282,283,284,285,286,287,288,289,290,291,292,293,294,295,296,297,298,299,300],"tree_info":[0,0,0,0,0,0,0,0,0,0,0,0,0,0,0,0,0,0,0,0,0,0,0,0,0,0,0,0,0,0,0,0,0,0,0,0,0,0,0,0,0,0,0,0,0,0,0,0,0,0,0,0,0,0,0,0,0,0,0,0,0,0,0,0,0,0,0,0,0,0,0,0,0,0,0,0,0,0,0,0,0,0,0,0,0,0,0,0,0,0,0,0,0,0,0,0,0,0,0,0,0,0,0,0,0,0,0,0,0,0,0,0,0,0,0,0,0,0,0,0,0,0,0,0,0,0,0,0,0,0,0,0,0,0,0,0,0,0,0,0,0,0,0,0,0,0,0,0,0,0,0,0,0,0,0,0,0,0,0,0,0,0,0,0,0,0,0,0,0,0,0,0,0,0,0,0,0,0,0,0,0,0,0,0,0,0,0,0,0,0,0,0,0,0,0,0,0,0,0,0,0,0,0,0,0,0,0,0,0,0,0,0,0,0,0,0,0,0,0,0,0,0,0,0,0,0,0,0,0,0,0,0,0,0,0,0,0,0,0,0,0,0,0,0,0,0,0,0,0,0,0,0,0,0,0,0,0,0,0,0,0,0,0,0,0,0,0,0,0,0,0,0,0,0,0,0,0,0,0,0,0,0,0,0,0,0,0,0,0,0,0,0,0,0,0,0,0,0,0,0],"trees":[{"base_weights":[8.5981805E-3,1.4356924E0,-7.3174274E-1,9.8905064E-2,-9.561036E-2,-9.2228405E-2,-4.4940993E-1,-8.571963E-2,-4.1073915E-1,3.670351E-2,-2.2184955E-2],"categories":[],"categories_nodes":[],"categories_segments":[],"categories_sizes":[],"default_left":[0,0,0,0,0,0,0,0,0,0,0],"id":0,"left_children":[1,3,5,-1,-1,-1,7,-1,9,-1,-1],"loss_changes":[4.9343076E2,2.9346426E2,9.57867E1,0E0,0E0,0E0,1.13591E1,0E0,9.404324E0,0E0,0E0],"parents":[2147483647,0,0,1,1,2,2,6,6,8,8],"right_children":[2,4,6,-1,-1,-1,8,-1,10,-1,-1],"split_conditions":[8.5E-1,9.67E-3,4.5746E-1,9.8905064E-2,-9.561036E-2,-9.2228405E-2,7.58E-1,-8.571963E-2,7.4902E-1,3.670351E-2,-2.2184955E-2],"split_indices":[0,6,6,0,0,0,2,0,6,0,0],"split_type":[0,0,0,0,0,0,0,0,0,0,0],"sum_hessian":[4.650325E2,1.585225E2,3.0651E2,1.367725E2,2.175E1,6.09075E1,2.4560251E2,6E0,2.3960251E2,6.11E0,2.3349251E2],"tree_param":{"num_deleted":"0","num_feature":"7","num_nodes":"11","size_leaf_vector":"1"}},{"base_weights":[-1.7265657E-2,1.3328805E0,-7.125646E-1,9.422025E-2,-9.1502026E-2,-8.90989E-2,-4.2685753E-1,-8.2754806E-2,-3.8795927E-1,2.7879963E-2,-2.074972E-2],"categories":[],"categories_nodes":[],"categories_segments":[],"categories_sizes":[],"default_left":[0,0,0,0,0,0,0,0,0,0,0],"id":1,"left_children":[1,3,5,-1,-1,-1,7,-1,9,-1,-1],"loss_changes":[4.4060196E2,2.8176767E2,9.389162E1,0E0,0E0,0E0,1.1100777E1,0E0,6.3550797E0,0E0,0E0],"parents":[2147483647,0,0,1,1,2,2,6,6,8,8],"right_children":[2,4,6,-1,-1,-1,8,-1,10,-1,-1],"split_conditions":[8.5E-1,9.67E-3,4.5746E-1,9.422025E-2,-9.1502026E-2,-8.90989E-2,7.75E-1,-8.2754806E-2,7.4902E-1,2.7879963E-2,-2.074972E-2],"split_indices":[0,6,6,0,0,0,2,0,6,0,0],"split_type":[0,0,0,0,0,0,0,0,0,0,0],"sum_hessian":[4.673353E2,1.5854747E2,3.0878784E2,1.3535039E2,2.3197084E1,6.3999176E1,2.4478865E2,6.2389927E0,2.3854965E2,6.0854363E0,2.3246422E2],"tree_param":{"num_deleted":"0","num_feature":"7","num_nodes":"11","size_leaf_vector":"1"}},{"base_weights":[5.4823468E-3,7.137064E-1,-1.378396E0,1.4586108E0,-1.8676015E-2,-9.4587743E-1,-8.657369E-2,-8.2272545E-2,1.6498103E0,-7.641582E-2,4.0461E-2,-7.904075E-2,-8.665797E-1,9.0108596E-2,7.1354635E-2,-6.2292594E-2,3.1827725E-3,-2.5639499E-2,-4.7940135E-2],"categories":[],"categories_nodes":[],"categories_segments":[],"categories_sizes":[],"default_left":[0,0,0,0,0,0,0,0,0,0,0,0,0,0,0,0,0,0,0],"id":2,"left_children":[1,3,5,7,9,11,-1,-1,13,-1,15,-1,17,-1,-1,-1,-1,-1,-1],"loss_changes":[4.5970456E2,1.6928809E2,2.261029E1,9.400903E1,1.4116456E1,2.3341293E0,0E0,0E0,2.3620605E0,0E0,4.628274E0,0E0,1.7143631E0,0E0,0E0,0E0,0E0,0E0,0E0],"parents":[2147483647,0,0,1,1,2,2,3,3,4,4,5,5,8,8,10,10,12,12],"right_children":[2,4,6,8,10,12,-1,-1,14,-1,16,-1,18,-1,-1,-1,-1,-1,-1],"split_conditions":[4.29E-3,8.5E-1,4.2295E-1,9E-1,7.09E-1,1E0,-8.657369E-2,-8.2272545E-2,7E-1,-7.641582E-2,1E0,-7.904075E-2,8.517E-2,9.0108596E-2,7.1354635E-2,-6.2292594E-2,3.1827725E-3,-2.5639499E-2,-4.7940135E-2],"split_indices":[5,0,5,1,2,0,0,0,0,0,0,0,5,0,0,0,0,0,0],"split_type":[0,0,0,0,0,0,0,0,0,0,0,0,0,0,0,0,0,0,0],"sum_hessian":[4.6703662E2,3.092545E2,1.5778212E2,1.5282497E2,1.564295E2,7.256692E1,8.521521E1,8.425984E0,1.4439899E2,4.9602923E0,1.5146922E2,5.9544415E0,6.661247E1,8.153142E1,6.2867573E1,1.7491984E0,1.4972002E2,1.5130093E1,5.1482384E1],"tree_param":{"num_deleted":"0","num_feature":"7","num_nodes":"19","size_leaf_vector":"1"}},{"base_weights":[8.591581E-3,6.8955034E-1,-1.3256602E0,1.4310791E0,4.6902183E-3,-9.269255E-1,-8.297812E-2,8.6931124E-2,-8.462069E-2,-1.6816604E0,7.3506725E-1,-1.3899102E0,-7.591716E-1,-8.602949E-2,-3.4867693E-2,-6.276769E-2,3.9128434E-2,-7.783903E-2,-3.0137388E-2,4.0117158E-3,-4.513744E-2],"categories":[],"categories_nodes":[],"categories_segments":[],"categories_sizes":[],"default_left":[0,0,0,0,0,0,0,0,0,0,0,0,0,0,0,0,0,0,0,0,0],"id":3,"left_children":[1,3,5,7,9,11,-1,-1,-1,13,15,17,19,-1,-1,-1,-1,-1,-1,-1,-1],"loss_changes":[4.179157E2,1.5464885E2,1.9155487E1,1.4339722E2,1.974656E2,4.62257E0,0E0,0E0,0E0,6.5678406E-1,1.1559128E1,1.4574547E0,6.8051453E0,0E0,0E0,0E0,0E0,0E0,0E0,0E0,0E0],"parents":[2147483647,0,0,1,1,2,2,3,3,4,4,5,5,9,9,10,10,11,11,12,12],"right_children":[2,4,6,8,10,12,-1,-1,-1,14,16,18,20,-1,-1,-1,-1,-1,-1,-1,-1],"split_conditions":[4.29E-3,8.5E-1,4.2295E-1,9.67E-3,3.896E-1,9.8719E-1,-8.297812E-2,8.6931124E-2,-8.462069E-2,2.14E-2,1E0,1.9165E-1,7.874E-2,-8.602949E-2,-3.4867693E-2,-6.276769E-2,3.9128434E-2,-7.783903E-2,-3.0137388E-2,4.0117158E-3,-4.513744E-2],"split_indices":[5,0,5,6,6,6,0,0,0,6,0,5,5,0,0,0,0,0,0,0,0],"split_type":[0,0,0,0,0,0,0,0,0,0,0,0,0,0,0,0,0,0,0,0,0],"sum_hessian":[4.579645E2,3.035339E2,1.5443063E2,1.4521428E2,1.5831961E2,7.210332E1,8.232731E1,1.3260153E2,1.2612749E1,4.745331E1,1.1086631E2,1.7239239E1,5.486408E1,4.4928368E1,2.5249429E0,1.9914688E0,1.0887484E2,1.3417214E1,3.822024E0,8.078034E0,4.6786045E1],"tree_param":{"num_deleted":"0","num_feature":"7","num_nodes":"21","size_leaf_vector":"1"}},{"base_weights":[1.565999E-2,6.630729E-1,-1.240478E0,1.3576043E0,1.7349225E-2,-8.371148E-1,-7.963147E-2,8.380108E-2,-8.1762284E-2,-1.5950897E0,6.9951355E-1,-1.2977016E0,-6.7225814E-1,-8.248103E-2,-3.796602E-2,-5.8568895E-2,3.6963444E-2,-7.167606E-2,-3.2199286E-2,1.2043643E-2,-4.2157933E-2],"categories":[],"categories_nodes":[],"categories_segments":[],"categories_sizes":[],"default_left":[0,0,0,0,0,0,0,0,0,0,0,0,0,0,0,0,0,0,0,0,0],"id":4,"left_children":[1,3,5,7,9,11,-1,-1,-1,13,15,17,19,-1,-1,-1,-1,-1,-1,-1,-1],"loss_changes":[3.7761362E2,1.3738632E2,2.1099594E1,1.4340442E2,1.7687494E2,4.877033E0,0E0,0E0,0E0,9.262924E-1,9.269192E0,7.534504E-1,9.228628E0,0E0,0E0,0E0,0E0,0E0,0E0,0E0,0E0],"parents":[2147483647,0,0,1,1,2,2,3,3,4,4,5,5,9,9,10,10,11,11,12,12],"right_children":[2,4,6,8,10,12,-1,-1,-1,14,16,18,20,-1,-1,-1,-1,-1,-1,-1,-1],"split_conditions":[4.29E-3,8.5E-1,4.2295E-1,9.67E-3,3.9885E-1,9.8719E-1,-7.963147E-2,8.380108E-2,-8.1762284E-2,9.67E-3,1E0,1.9165E-1,7.874E-2,-8.248103E-2,-3.796602E-2,-5.8568895E-2,3.6963444E-2,-7.167606E-2,-3.2199286E-2,1.2043643E-2,-4.2157933E-2],"split_indices":[5,0,5,6,6,6,0,0,0,6,0,5,5,0,0,0,0,0,0,0,0],"split_type":[0,0,0,0,0,0,0,0,0,0,0,0,0,0,0,0,0,0,0,0,0],"sum_hessian":[4.6232086E2,3.053934E2,1.5692746E2,1.4660483E2,1.5878856E2,7.4719246E1,8.220821E1,1.3290474E2,1.3700097E1,4.6808514E1,1.1198005E2,1.7883509E1,5.683574E1,4.302736E1,3.7811542E0,1.7377288E0,1.1024232E2,1.3819428E1,4.06408E0,8.8957615E0,4.793998E1],"tree_param":{"num_deleted":"0","num_feature":"7","num_nodes":"21","size_leaf_vector":"1"}},{"base_weights":[1.6739532E-2,6.196991E-1,-1.2100272E0,1.2920736E0,1.7272322E-2,-8.102391E-1,-7.598566E-2,8.0986366E-2,-7.920676E-2,-1.5489728E0,7.336232E-1,-1.3039194E0,-6.473119E-1,-7.9878785E-2,-3.9152578E-2,1.0900478E-2,3.9912667E-2,-7.4384734E-2,-3.096954E-2,2.388204E-2,-3.841532E-2],"categories":[],"categories_nodes":[],"categories_segments":[],"categories_sizes":[],"default_left":[0,0,0,0,0,0,0,0,0,0,0,0,0,0,0,0,0,0,0,0,0],"id":5,"left_children":[1,3,5,7,9,11,-1,-1,-1,13,15,17,19,-1,-1,-1,-1,-1,-1,-1,-1],"loss_changes":[3.3652887E2,1.2352612E2,1.7331268E1,1.3839038E2,1.8277307E2,4.592205E0,0E0,0E0,0E0,6.5229034E-1,3.5503426E0,1.0642395E0,7.55398E0,0E0,0E0,0E0,0E0,0E0,0E0,0E0,0E0],"parents":[2147483647,0,0,1,1,2,2,3,3,4,4,5,5,9,9,10,10,11,11,12,12],"right_children":[2,4,6,8,10,12,-1,-1,-1,14,16,18,20,-1,-1,-1,-1,-1,-1,-1,-1],"split_conditions":[3.477E-2,8.5E-1,4.2295E-1,9.67E-3,3.9885E-1,9.8719E-1,-7.598566E-2,8.0986366E-2,-7.920676E-2,2.14E-2,9.6582E-1,1.9165E-1,7.874E-2,-7.9878785E-2,-3.9152578E-2,1.0900478E-2,3.9912667E-2,-7.4384734E-2,-3.096954E-2,2.388204E-2,-3.841532E-2],"split_indices":[5,0,5,6,6,6,0,0,0,6,6,5,5,0,0,0,0,0,0,0,0],"split_type":[0,0,0,0,0,0,0,0,0,0,0,0,0,0,0,0,0,0,0,0,0],"sum_hessian":[4.5294507E2,3.040154E2,1.4892966E2,1.4312614E2,1.6088927E2,6.658646E1,8.234321E1,1.2888104E2,1.4245092E1,5.0127377E1,1.10761894E2,1.4784702E1,5.1801754E1,4.6115234E1,4.0121403E0,1.2824247E1,9.793765E1,1.073056E1,4.054142E0,4.7442436E0,4.705751E1],"tree_param":{"num_deleted":"0","num_feature":"7","num_nodes":"21","size_leaf_vector":"1"}},{"base_weights":[-1.1869119E-2,5.823003E-1,-1.2461338E0,1.2407982E0,-9.636456E-3,-9.213361E-1,-7.403059E-2,7.8534E-2,-7.69158E-2,-1.5184494E0,6.5935534E-1,-7.259529E-2,-7.422992E-1,-7.673211E-2,-1.827716E-2,-5.73858E-2,3.4876592E-2,4.727395E-3,-4.15169E-2],"categories":[],"categories_nodes":[],"categories_segments":[],"categories_sizes":[],"default_left":[0,0,0,0,0,0,0,0,0,0,0,0,0,0,0,0,0,0,0],"id":6,"left_children":[1,3,5,7,9,11,-1,-1,-1,13,15,-1,17,-1,-1,-1,-1,-1,-1],"loss_changes":[3.3434082E2,1.1997537E2,9.918442E0,1.3598987E2,1.6559729E2,5.073761E0,0E0,0E0,0E0,3.7982178E-1,8.642498E0,0E0,3.796568E0,0E0,0E0,0E0,0E0,0E0,0E0],"parents":[2147483647,0,0,1,1,2,2,3,3,4,4,5,5,9,9,10,10,12,12],"right_children":[2,4,6,8,10,12,-1,-1,-1,14,16,-1,18,-1,-1,-1,-1,-1,-1],"split_conditions":[3.477E-2,8.5E-1,4.2295E-1,9.67E-3,3.9885E-1,9.8719E-1,-7.403059E-2,7.8534E-2,-7.69158E-2,3.896E-1,1E0,-7.259529E-2,6.992E-2,-7.673211E-2,-1.827716E-2,-5.73858E-2,3.4876592E-2,4.727395E-3,-4.15169E-2],"split_indices":[5,0,5,6,6,6,0,0,0,6,0,0,5,0,0,0,0,0,0],"split_type":[0,0,0,0,0,0,0,0,0,0,0,0,0,0,0,0,0,0,0],"sum_hessian":[4.5391183E2,3.0676486E2,1.4714699E2,1.446989E2,1.6206595E2,6.3758457E1,8.3388535E1,1.2973424E2,1.4964663E1,4.939439E1,1.1267156E2,1.4292781E1,4.946568E1,4.8383724E1,1.0106646E0,1.7297752E0,1.1094179E2,4.7015443E0,4.4764133E1],"tree_param":{"num_deleted":"0","num_feature":"7","num_nodes":"19","size_leaf_vector":"1"}},{"base_weights":[3.6473407E-3,1.0908412E0,-5.172279E-1,7.6273516E-2,-7.600384E-2,-7.23487E-2,-2.7690825E-1,-6.9760546E-2,-2.4330229E-1,-3.4990042E-2,-9.33903E-3],"categories":[],"categories_nodes":[],"categories_segments":[],"categories_sizes":[],"default_left":[0,0,0,0,0,0,0,0,0,0,0],"id":7,"left_children":[1,3,5,-1,-1,-1,7,-1,9,-1,-1],"loss_changes":[2.5482935E2,1.6772299E2,6.757779E1,0E0,0E0,0E0,8.79249E0,0E0,5.9872675E0,0E0,0E0],"parents":[2147483647,0,0,1,1,2,2,6,6,8,8],"right_children":[2,4,6,-1,-1,-1,8,-1,10,-1,-1],"split_conditions":[8.5E-1,9.67E-3,5.4668E-1,7.6273516E-2,-7.600384E-2,-7.23487E-2,7.75E-1,-6.9760546E-2,9.7068E-1,-3.4990042E-2,-9.33903E-3],"split_indices":[0,6,6,0,0,0,2,0,6,0,0],"split_type":[0,0,0,0,0,0,0,0,0,0,0],"sum_hessian":[4.4799973E2,1.447587E2,3.0324103E2,1.24456635E2,2.0302063E1,6.1251366E1,2.4198967E2,5.877801E0,2.3611186E2,2.4759571E1,2.113523E2],"tree_param":{"num_deleted":"0","num_feature":"7","num_nodes":"11","size_leaf_vector":"1"}},{"base_weights":[-8.902143E-3,1.055843E0,-5.1410705E-1,7.426989E-2,-7.406052E-2,-7.087911E-2,-2.854764E-1,8.934679E-1,-3.1525853E-1,6.5805414E-3,5.553757E-2,-5.0057787E-2,-1.2609111E-2],"categories":[],"categories_nodes":[],"categories_segments":[],"categories_sizes":[],"default_left":[0,0,0,0,0,0,0,0,0,0,0,0,0],"id":8,"left_children":[1,3,5,-1,-1,-1,7,9,11,-1,-1,-1,-1],"loss_changes":[2.4090355E2,1.5926108E2,6.2332275E1,0E0,0E0,0E0,8.83606E0,8.90717E-1,1.006039E1,0E0,0E0,0E0,0E0],"parents":[2147483647,0,0,1,1,2,2,6,6,7,7,8,8],"right_children":[2,4,6,-1,-1,-1,8,10,12,-1,-1,-1,-1],"split_conditions":[8.5E-1,9.67E-3,5.4668E-1,7.426989E-2,-7.406052E-2,-7.087911E-2,7.4902E-1,5.9924E-1,9.7068E-1,6.5805414E-3,5.553757E-2,-5.0057787E-2,-1.2609111E-2],"split_indices":[0,6,6,0,0,0,6,6,6,0,0,0,0],"split_type":[0,0,0,0,0,0,0,0,0,0,0,0,0],"sum_hessian":[4.458382E2,1.4311856E2,3.0271964E2,1.2274998E2,2.0368582E1,6.0084522E1,2.4263512E2,5.263808E0,2.373713E2,1.5244317E0,3.7393758E0,1.8738213E1,2.1863309E2],"tree_param":{"num_deleted":"0","num_feature":"7","num_nodes":"13","size_leaf_vector":"1"}},{"base_weights":[6.1188843E-3,5.5911934E-1,-1.1092076E0,1.154545E0,5.0516315E-2,-7.6271546E-1,-6.9301486E-2,7.2863065E-2,-7.044267E-2,-1.3781271E0,6.420336E-1,-1.2670819E0,-6.1164945E-1,-7.06005E-2,-3.3806123E-2,-5.144458E-2,3.3646733E-2,-7.076567E-2,-3.270464E-2,-1.1954944E-2,-4.3747723E-2],"categories":[],"categories_nodes":[],"categories_segments":[],"categories_sizes":[],"default_left":[0,0,0,0,0,0,0,0,0,0,0,0,0,0,0,0,0,0,0,0,0],"id":9,"left_children":[1,3,5,7,9,11,-1,-1,-1,13,15,17,19,-1,-1,-1,-1,-1,-1,-1,-1],"loss_changes":[2.7182053E2,8.916349E1,1.2954803E1,1.0733862E2,1.36046E2,4.3376465E0,0E0,0E0,0E0,1.6680908E-1,6.5678215E0,3.947506E-1,5.045635E0,0E0,0E0,0E0,0E0,0E0,0E0,0E0,0E0],"parents":[2147483647,0,0,1,1,2,2,3,3,4,4,5,5,9,9,10,10,11,11,12,12],"right_children":[2,4,6,8,10,12,-1,-1,-1,14,16,18,20,-1,-1,-1,-1,-1,-1,-1,-1],"split_conditions":[3.477E-2,8.5E-1,4.2295E-1,9.67E-3,3.896E-1,9.8719E-1,-6.9301486E-2,7.2863065E-2,-7.044267E-2,9.67E-3,1E0,1.9165E-1,2.1232E-1,-7.06005E-2,-3.3806123E-2,-5.144458E-2,3.3646733E-2,-7.076567E-2,-3.270464E-2,-1.1954944E-2,-4.3747723E-2],"split_indices":[5,0,5,6,6,6,0,0,0,6,0,5,5,0,0,0,0,0,0,0,0],"split_type":[0,0,0,0,0,0,0,0,0,0,0,0,0,0,0,0,0,0,0,0,0],"sum_hessian":[4.387063E2,2.9362167E2,1.4508463E2,1.3468034E2,1.5894135E2,6.610176E1,7.8982864E1,1.2084147E2,1.3838872E1,4.6149765E1,1.1279158E2,1.3532615E1,5.256915E1,4.3060036E1,3.0897262E0,1.461602E0,1.1132998E2,9.843428E0,3.689187E0,2.2558777E1,3.0010372E1],"tree_param":{"num_deleted":"0","num_feature":"7","num_nodes":"21","size_leaf_vector":"1"}},{"base_weights":[1.140957E-2,5.129842E-1,-1.085395E0,1.1371356E0,2.57152E-2,-6.906624E-1,-6.77749E-2,7.078144E-2,-6.836667E-2,-1.3304869E0,5.7749397E-1,-7.4974656E-1,-2.1913227E-1,-6.8921335E-2,-3.2318998E-2,-5.3459585E-2,3.051808E-2,-5.9802134E-2,-3.4574863E-2,3.0964217E-3,-2.0652642E-2],"categories":[],"categories_nodes":[],"categories_segments":[],"categories_sizes":[],"default_left":[0,0,0,0,0,0,0,0,0,0,0,0,0,0,0,0,0,0,0,0,0],"id":10,"left_children":[1,3,5,7,9,11,-1,-1,-1,13,15,17,19,-1,-1,-1,-1,-1,-1,-1,-1],"loss_changes":[2.3622525E2,8.957878E1,1.3430634E1,9.201619E1,1.2535353E2,1.417696E0,0E0,0E0,0E0,6.979599E-1,7.0951424E0,4.7400475E-1,4.4721115E-1,0E0,0E0,0E0,0E0,0E0,0E0,0E0,0E0],"parents":[2147483647,0,0,1,1,2,2,3,3,4,4,5,5,9,9,10,10,11,11,12,12],"right_children":[2,4,6,8,10,12,-1,-1,-1,14,16,18,20,-1,-1,-1,-1,-1,-1,-1,-1],"split_conditions":[7.874E-2,8.5E-1,4.2295E-1,9.67E-3,3.9885E-1,3.7721E-1,-6.77749E-2,7.078144E-2,-6.836667E-2,2.14E-2,1E0,1E0,3.9645E-1,-6.8921335E-2,-3.2318998E-2,-5.3459585E-2,3.051808E-2,-5.9802134E-2,-3.4574863E-2,3.0964217E-3,-2.0652642E-2],"split_indices":[5,0,5,6,6,5,0,0,0,6,0,0,5,0,0,0,0,0,0,0,0],"split_type":[0,0,0,0,0,0,0,0,0,0,0,0,0,0,0,0,0,0,0,0,0],"sum_hessian":[4.273874E2,2.936376E2,1.3374977E2,1.281519E2,1.6548572E2,5.5783676E1,7.796609E1,1.15718895E2,1.2433006E1,4.744953E1,1.1803619E2,4.904781E1,6.7358665E0,4.3393726E1,4.0558057E0,1.6928551E0,1.1634333E2,3.4074411E0,4.564037E1,3.027941E0,3.7079256E0],"tree_param":{"num_deleted":"0","num_feature":"7","num_nodes":"21","size_leaf_vector":"1"}},{"base_weights":[1.2447736E-2,5.241214E-1,-1.0287045E0,1.1252316E0,2.8286766E-2,-6.815284E-1,-6.6014655E-2,6.971695E-2,-6.67292E-2,-1.315936E0,5.7179016E-1,-1.0558511E0,-5.6699204E-1,-6.822663E-2,-3.438073E-2,-5.480073E-2,3.0543987E-2,-6.309449E-2,-1.593562E-2,5.364183E-3,-3.2623183E-2],"categories":[],"categories_nodes":[],"categories_segments":[],"categories_sizes":[],"default_left":[0,0,0,0,0,0,0,0,0,0,0,0,0,0,0,0,0,0,0,0,0],"id":11,"left_children":[1,3,5,7,9,11,-1,-1,-1,13,15,17,19,-1,-1,-1,-1,-1,-1,-1,-1],"loss_changes":[2.2467456E2,8.4244225E1,1.3168762E1,8.644835E1,1.1470439E2,2.2098293E0,0E0,0E0,0E0,4.4216156E-1,7.955784E0,1.7526588E0,3.085184E0,0E0,0E0,0E0,0E0,0E0,0E0,0E0,0E0],"parents":[2147483647,0,0,1,1,2,2,3,3,4,4,5,5,9,9,10,10,11,11,12,12],"right_children":[2,4,6,8,10,12,-1,-1,-1,14,16,18,20,-1,-1,-1,-1,-1,-1,-1,-1],"split_conditions":[3.477E-2,8.5E-1,4.2295E-1,9.67E-3,5.3123E-1,9.864E-1,-6.6014655E-2,6.971695E-2,-6.67292E-2,2.14E-2,1E0,1.9165E-1,7.874E-2,-6.822663E-2,-3.438073E-2,-5.480073E-2,3.0543987E-2,-6.309449E-2,-1.593562E-2,5.364183E-3,-3.2623183E-2],"split_indices":[5,0,5,6,6,6,0,0,0,6,0,5,5,0,0,0,0,0,0,0,0],"split_type":[0,0,0,0,0,0,0,0,0,0,0,0,0,0,0,0,0,0,0,0,0],"sum_hessian":[4.1972964E2,2.8175696E2,1.3797269E2,1.2678437E2,1.549726E2,6.450633E1,7.3466354E1,1.1467221E2,1.2112156E1,4.420964E1,1.1076295E2,1.3187859E1,5.131847E1,3.99482E1,4.2614436E0,1.917372E0,1.0884557E2,9.750583E0,3.437276E0,5.744619E0,4.5573853E1],"tree_param":{"num_deleted":"0","num_feature":"7","num_nodes":"21","size_leaf_vector":"1"}},{"base_weights":[-1.9213332E-2,4.922162E-1,-9.884087E-1,-6.593851E-2,5.518834E-1,-6.215969E-1,-6.544095E-2,-5.8175802E-2,5.770794E-1,-1.0960497E0,-4.630865E-1,3.5358887E-2,2.046556E-2,-5.9596837E-2,-2.9379666E-2,-3.7410576E-3,-3.5687707E-2],"categories":[],"categories_nodes":[],"categories_segments":[],"categories_sizes":[],"default_left":[0,0,0,0,0,0,0,0,0,0,0,0,0,0,0,0,0],"id":12,"left_children":[1,3,5,-1,7,9,-1,-1,11,13,15,-1,-1,-1,-1,-1,-1],"loss_changes":[2.0867023E2,3.0507477E1,1.6276154E1,0E0,1.2233475E1,4.73419E0,0E0,0E0,5.479347E0,1.1493683E-1,5.199851E0,0E0,0E0,0E0,0E0,0E0,0E0],"parents":[2147483647,0,0,1,1,2,2,4,4,5,5,8,8,9,9,10,10],"right_children":[2,4,6,-1,8,10,-1,-1,12,14,16,-1,-1,-1,-1,-1,-1],"split_conditions":[4.29E-3,9E-1,4.0829E-1,-6.593851E-2,6.77E-1,9.8719E-1,-6.544095E-2,-5.8175802E-2,1.5184E-1,1.9165E-1,1.9234E-1,3.5358887E-2,2.046556E-2,-5.9596837E-2,-2.9379666E-2,-3.7410576E-3,-3.5687707E-2],"split_indices":[5,1,5,0,2,6,0,0,6,5,5,0,0,0,0,0,0],"split_type":[0,0,0,0,0,0,0,0,0,0,0,0,0,0,0,0,0],"sum_hessian":[4.1900034E2,2.7459363E2,1.4440672E2,8.085476E0,2.6650815E2,6.869892E1,7.5707794E1,3.2038593E0,2.633043E2,1.5722798E1,5.297612E1,1.4649072E2,1.16813576E2,1.2097221E1,3.6255767E0,2.1293137E1,3.1682983E1],"tree_param":{"num_deleted":"0","num_feature":"7","num_nodes":"17","size_leaf_vector":"1"}},{"base_weights":[-7.7753915E-3,4.8274273E-1,-9.6296084E-1,1.0953639E0,1.0951646E-3,-6.364418E-1,-6.2024552E-2,6.766924E-2,-6.440737E-2,-6.648671E-2,4.96685E-1,-1.1531677E0,-4.8743907E-1,-4.6177763E-2,2.6144637E-2,-6.577347E-2,-2.2236114E-2,1.6336888E-2,-2.9950304E-2],"categories":[],"categories_nodes":[],"categories_segments":[],"categories_sizes":[],"default_left":[0,0,0,0,0,0,0,0,0,0,0,0,0,0,0,0,0,0,0],"id":13,"left_children":[1,3,5,7,9,11,-1,-1,-1,-1,13,15,17,-1,-1,-1,-1,-1,-1],"loss_changes":[1.9253528E2,8.011388E1,1.1844864E1,7.52399E1,1.0157558E2,4.5280666E0,0E0,0E0,0E0,0E0,4.659792E0,1.0321827E0,5.014229E0,0E0,0E0,0E0,0E0,0E0,0E0],"parents":[2147483647,0,0,1,1,2,2,3,3,4,4,5,5,10,10,11,11,12,12],"right_children":[2,4,6,8,10,12,-1,-1,-1,-1,14,16,18,-1,-1,-1,-1,-1,-1],"split_conditions":[3.477E-2,8.5E-1,4.2295E-1,9.67E-3,3.896E-1,9.8719E-1,-6.2024552E-2,6.766924E-2,-6.440737E-2,-6.648671E-2,1E0,2.1063E-1,7.874E-2,-4.6177763E-2,2.6144637E-2,-6.577347E-2,-2.2236114E-2,1.6336888E-2,-2.9950304E-2],"split_indices":[5,0,5,6,6,6,0,0,0,0,0,5,5,0,0,0,0,0,0],"split_type":[0,0,0,0,0,0,0,0,0,0,0,0,0,0,0,0,0,0,0],"sum_hessian":[4.0893756E2,2.705144E2,1.3842316E2,1.18507355E2,1.5200706E2,6.511154E1,7.331161E1,1.073217E2,1.1185651E1,4.0789658E1,1.1121741E2,1.30648365E1,5.2046703E1,1.394731E0,1.0982268E2,9.932506E0,3.132331E0,6.040033E0,4.600667E1],"tree_param":{"num_deleted":"0","num_feature":"7","num_nodes":"19","size_leaf_vector":"1"}},{"base_weights":[4.0943373E-4,5.0101495E-1,-9.409952E-1,1.1004848E0,5.0733477E-2,-6.366153E-1,-6.064707E-2,6.6000275E-2,-6.241584E-2,-1.2386827E0,5.368544E-1,-1.0804492E0,-5.043951E-1,-6.436519E-2,-3.0589944E-2,-5.0744075E-2,2.8592492E-2,-6.0177933E-2,-2.5086297E-2,6.867621E-3,-3.2147642E-2],"categories":[],"categories_nodes":[],"categories_segments":[],"categories_sizes":[],"default_left":[0,0,0,0,0,0,0,0,0,0,0,0,0,0,0,0,0,0,0,0,0],"id":14,"left_children":[1,3,5,7,9,11,-1,-1,-1,13,15,17,19,-1,-1,-1,-1,-1,-1,-1,-1],"loss_changes":[1.9338397E2,7.22556E1,1.1019485E1,6.0871063E1,9.7212234E1,3.5231857E0,0E0,0E0,0E0,5.070114E-1,6.692528E0,4.6740532E-1,5.0044136E0,0E0,0E0,0E0,0E0,0E0,0E0,0E0,0E0],"parents":[2147483647,0,0,1,1,2,2,3,3,4,4,5,5,9,9,10,10,11,11,12,12],"right_children":[2,4,6,8,10,12,-1,-1,-1,14,16,18,20,-1,-1,-1,-1,-1,-1,-1,-1],"split_conditions":[4.29E-3,8.5E-1,4.2295E-1,9.67E-3,5.3123E-1,9.8719E-1,-6.064707E-2,6.6000275E-2,-6.241584E-2,2.14E-2,1E0,1.9165E-1,8.517E-2,-6.436519E-2,-3.0589944E-2,-5.0744075E-2,2.8592492E-2,-6.0177933E-2,-2.5086297E-2,6.867621E-3,-3.2147642E-2],"split_indices":[5,0,5,6,6,6,0,0,0,6,0,5,5,0,0,0,0,0,0,0,0],"split_type":[0,0,0,0,0,0,0,0,0,0,0,0,0,0,0,0,0,0,0,0,0],"sum_hessian":[4.0834396E2,2.6688943E2,1.4145451E2,1.13860466E2,1.5302898E2,6.8323425E1,7.3131096E1,1.04529106E2,9.331356E0,4.147366E1,1.1155532E2,1.4036016E1,5.4287407E1,3.751083E1,3.96283E0,1.8428085E0,1.0971251E2,1.0683648E1,3.352368E0,9.641279E0,4.4646126E1],"tree_param":{"num_deleted":"0","num_feature":"7","num_nodes":"21","size_leaf_vector":"1"}},{"base_weights":[2.6257497E-3,4.7434044E-1,-8.8738006E-1,1.039955E0,4.6253752E-2,-5.433946E-1,-6.0309507E-2,6.486852E-2,-6.2211614E-2,-1.2078096E0,5.2632844E-1,-6.0327597E-2,-4.709114E-1,-6.290619E-2,-3.0424217E-2,-4.764788E-2,2.787583E-2,-4.270628E-2,-1.7193176E-2],"categories":[],"categories_nodes":[],"categories_segments":[],"categories_sizes":[],"default_left":[0,0,0,0,0,0,0,0,0,0,0,0,0,0,0,0,0,0,0],"id":15,"left_children":[1,3,5,7,9,11,-1,-1,-1,13,15,-1,17,-1,-1,-1,-1,-1,-1],"loss_changes":[1.6637352E2,6.2665688E1,1.439949E1,6.719423E1,9.002302E1,2.693344E0,0E0,0E0,0E0,4.8303986E-1,5.517069E0,0E0,2.7641602E0,0E0,0E0,0E0,0E0,0E0,0E0],"parents":[2147483647,0,0,1,1,2,2,3,3,4,4,5,5,9,9,10,10,12,12],"right_children":[2,4,6,8,10,12,-1,-1,-1,14,16,-1,18,-1,-1,-1,-1,-1,-1],"split_conditions":[4.29E-3,8.5E-1,4.2295E-1,9.67E-3,3.9885E-1,1E0,-6.0309507E-2,6.486852E-2,-6.2211614E-2,2.14E-2,1E0,-6.0327597E-2,9.8719E-1,-6.290619E-2,-3.0424217E-2,-4.764788E-2,2.787583E-2,-4.270628E-2,-1.7193176E-2],"split_indices":[5,0,5,6,6,0,0,0,0,6,0,0,6,0,0,0,0,0,0],"split_type":[0,0,0,0,0,0,0,0,0,0,0,0,0,0,0,0,0,0,0],"sum_hessian":[3.9428632E2,2.5800653E2,1.3627979E2,1.1053351E2,1.4747302E2,6.685255E1,6.942724E1,9.972687E1,1.0806645E1,4.0406433E1,1.0706659E2,5.045428E0,6.1807117E1,3.6262882E1,4.143551E0,1.6004497E0,1.0546614E2,1.3964168E1,4.7842953E1],"tree_param":{"num_deleted":"0","num_feature":"7","num_nodes":"19","size_leaf_vector":"1"}},{"base_weights":[-3.021093E-3,4.3348202E-1,-8.735597E-1,1.0200708E0,1.1752171E-2,-5.8044636E-1,-5.71458E-2,6.4347565E-2,-6.137854E-2,-1.2070705E0,4.4748002E-1,-5.9056412E-2,-5.136502E-1,-6.109723E-2,-1.9444931E-2,-4.851696E-2,2.3929311E-2,-4.51112E-2,-2.0040607E-2],"categories":[],"categories_nodes":[],"categories_segments":[],"categories_sizes":[],"default_left":[0,0,0,0,0,0,0,0,0,0,0,0,0,0,0,0,0,0,0],"id":16,"left_children":[1,3,5,7,9,11,-1,-1,-1,13,15,-1,17,-1,-1,-1,-1,-1,-1],"loss_changes":[1.5051086E2,6.525098E1,9.780174E0,6.776081E1,8.2583565E1,2.0164642E0,0E0,0E0,0E0,2.318573E-2,5.5155582E0,0E0,2.2956305E0,0E0,0E0,0E0,0E0,0E0,0E0],"parents":[2147483647,0,0,1,1,2,2,3,3,4,4,5,5,9,9,10,10,12,12],"right_children":[2,4,6,8,10,12,-1,-1,-1,14,16,-1,18,-1,-1,-1,-1,-1,-1],"split_conditions":[3.477E-2,8.5E-1,4.2295E-1,9.67E-3,3.9885E-1,1E0,-5.71458E-2,6.4347565E-2,-6.137854E-2,3.8937E-1,1E0,-5.9056412E-2,9.8719E-1,-6.109723E-2,-1.9444931E-2,-4.851696E-2,2.3929311E-2,-4.51112E-2,-2.0040607E-2],"split_indices":[5,0,5,6,6,0,0,0,0,6,0,0,6,0,0,0,0,0,0],"split_type":[0,0,0,0,0,0,0,0,0,0,0,0,0,0,0,0,0,0,0],"sum_hessian":[3.940922E2,2.628145E2,1.3127768E2,1.0932891E2,1.534856E2,6.437727E1,6.69004E1,9.810727E1,1.1221641E1,3.9954422E1,1.1353117E2,4.7729306E0,5.9604347E1,3.8756336E1,1.1980848E0,1.7891128E0,1.1174206E2,1.1839069E1,4.7765278E1],"tree_param":{"num_deleted":"0","num_feature":"7","num_nodes":"19","size_leaf_vector":"1"}},{"base_weights":[7.6303887E-3,4.6346715E-1,-8.260441E-1,1.017254E0,4.8193123E-2,-5.073964E-1,-5.6766123E-2,-5.3991534E-2,1.1399548E0,-5.1948097E-2,3.872138E-3,-5.8206912E-2,-4.3660334E-1,6.282359E-2,4.836966E-2,-2.4282323E-2,1.0655142E-2],"categories":[],"categories_nodes":[],"categories_segments":[],"categories_sizes":[],"default_left":[0,0,0,0,0,0,0,0,0,0,0,0,0,0,0,0,0],"id":17,"left_children":[1,3,5,7,9,11,-1,-1,13,-1,-1,-1,15,-1,-1,-1,-1],"loss_changes":[1.4429567E2,5.64027E1,1.2652199E1,2.8285591E1,4.5745435E0,2.6495438E0,0E0,0E0,7.9145813E-1,0E0,0E0,0E0,2.1080837E0,0E0,0E0,0E0,0E0],"parents":[2147483647,0,0,1,1,2,2,3,3,4,4,5,5,8,8,12,12],"right_children":[2,4,6,8,10,12,-1,-1,14,-1,-1,-1,16,-1,-1,-1,-1],"split_conditions":[4.29E-3,8.5E-1,4.2295E-1,9E-1,6.98E-1,1E0,-5.6766123E-2,-5.3991534E-2,7E-1,-5.1948097E-2,3.872138E-3,-5.8206912E-2,3.8557E-1,6.282359E-2,4.836966E-2,-2.4282323E-2,1.0655142E-2],"split_indices":[5,0,5,1,2,0,0,0,0,0,0,0,5,0,0,0,0],"split_type":[0,0,0,0,0,0,0,0,0,0,0,0,0,0,0,0,0],"sum_hessian":[3.7769855E2,2.4447081E2,1.3322775E2,1.0414248E2,1.4032832E2,6.692052E1,6.6307236E1,5.3253965E0,9.8817085E1,2.7721488E0,1.3755617E2,5.0089207E0,6.19116E1,5.523796E1,4.3579124E1,5.7801E1,4.1105976E0],"tree_param":{"num_deleted":"0","num_feature":"7","num_nodes":"17","size_leaf_vector":"1"}},{"base_weights":[-4.583808E-3,4.1014826E-1,-8.252267E-1,9.801704E-1,2.5252858E-2,-4.9448234E-1,-5.5758994E-2,6.205363E-2,-5.998361E-2,-1.1580182E0,4.5629528E-1,-9.2092955E-1,-3.800572E-1,-6.0608923E-2,-2.3832107E-2,-4.496538E-2,2.4182012E-2,-5.4283272E-2,-1.348898E-2,-5.2198097E-3,-2.924867E-2],"categories":[],"categories_nodes":[],"categories_segments":[],"categories_sizes":[],"default_left":[0,0,0,0,0,0,0,0,0,0,0,0,0,0,0,0,0,0,0,0,0],"id":18,"left_children":[1,3,5,7,9,11,-1,-1,-1,13,15,17,19,-1,-1,-1,-1,-1,-1,-1,-1],"loss_changes":[1.2767473E2,5.4649876E1,1.1525749E1,5.859945E1,7.692393E1,2.6083145E0,0E0,0E0,0E0,9.0857697E-1,4.5313015E0,1.0075321E0,2.7352142E0,0E0,0E0,0E0,0E0,0E0,0E0,0E0,0E0],"parents":[2147483647,0,0,1,1,2,2,3,3,4,4,5,5,9,9,10,10,11,11,12,12],"right_children":[2,4,6,8,10,12,-1,-1,-1,14,16,18,20,-1,-1,-1,-1,-1,-1,-1,-1],"split_conditions":[3.477E-2,8.5E-1,4.0829E-1,9.67E-3,3.9885E-1,9.8719E-1,-5.5758994E-2,6.205363E-2,-5.998361E-2,2.14E-2,1E0,1.9165E-1,2.1232E-1,-6.0608923E-2,-2.3832107E-2,-4.496538E-2,2.4182012E-2,-5.4283272E-2,-1.348898E-2,-5.2198097E-3,-2.924867E-2],"split_indices":[5,0,5,6,6,6,0,0,0,6,0,5,5,0,0,0,0,0,0,0,0],"split_type":[0,0,0,0,0,0,0,0,0,0,0,0,0,0,0,0,0,0,0,0,0],"sum_hessian":[3.7313666E2,2.4820192E2,1.2493473E2,9.941853E1,1.487834E2,5.9625923E1,6.5308815E1,8.9175865E1,1.0242664E1,3.9276745E1,1.0950665E2,1.1123143E1,4.8502777E1,3.5663002E1,3.6137414E0,1.5347593E0,1.0797189E2,8.344695E0,2.778448E0,2.1325018E1,2.7177761E1],"tree_param":{"num_deleted":"0","num_feature":"7","num_nodes":"21","size_leaf_vector":"1"}},{"base_weights":[-1.1848693E-2,3.607836E-1,-8.4060556E-1,9.5293945E-1,-1.2415351E-2,-5.618629E-1,-1.0527296E0,6.124105E-2,-5.9468325E-2,-1.1633664E0,3.9532444E-1,-6.2365216E-1,4.6982706E-2,-9.331416E-1,-6.1175257E-2,-5.9918057E-2,-2.5261749E-2,5.3589135E-2,1.722288E-2,-5.0899446E-2,-2.689918E-2,1.871862E-2,-7.7218837E-3,-4.8748117E-2,1.4293253E-2],"categories":[],"categories_nodes":[],"categories_segments":[],"categories_sizes":[],"default_left":[0,0,0,0,0,0,0,0,0,0,0,0,0,0,0,0,0,0,0,0,0,0,0,0,0],"id":19,"left_children":[1,3,5,7,9,11,13,-1,-1,15,17,19,21,23,-1,-1,-1,-1,-1,-1,-1,-1,-1,-1,-1],"loss_changes":[1.1467306E2,5.6624214E1,6.2182007E0,5.9147453E1,7.466669E1,1.9823055E0,1.7055511E-1,0E0,0E0,3.5305405E-1,3.6741886E0,1.0468864E0,4.3455255E-1,2.4201012E0,0E0,0E0,0E0,0E0,0E0,0E0,0E0,0E0,0E0,0E0,0E0],"parents":[2147483647,0,0,1,1,2,2,3,3,4,4,5,5,6,6,9,9,10,10,11,11,12,12,13,13],"right_children":[2,4,6,8,10,12,14,-1,-1,16,18,20,22,24,-1,-1,-1,-1,-1,-1,-1,-1,-1,-1,-1],"split_conditions":[8.517E-2,8.5E-1,4.2295E-1,9.67E-3,3.896E-1,3.8557E-1,7.0544E-1,6.124105E-2,-5.9468325E-2,2.14E-2,8.8165E-1,1.3542E-1,3.9645E-1,6.9547E-1,-6.1175257E-2,-5.9918057E-2,-2.5261749E-2,5.3589135E-2,1.722288E-2,-5.0899446E-2,-2.689918E-2,1.871862E-2,-7.7218837E-3,-4.8748117E-2,1.4293253E-2],"split_indices":[5,0,5,6,6,5,5,0,0,6,6,5,5,5,0,0,0,0,0,0,0,0,0,0,0],"split_type":[0,0,0,0,0,0,0,0,0,0,0,0,0,0,0,0,0,0,0,0,0,0,0,0,0],"sum_hessian":[3.693426E2,2.5517392E2,1.1416867E2,9.804778E1,1.5712613E2,5.091384E1,6.325483E1,8.738586E1,1.0661929E1,4.0618027E1,1.165081E2,4.6200794E1,4.7130494E0,4.1004784E1,2.2250048E1,3.7787884E1,2.8301427E0,6.7445545E0,1.0976354E2,6.3033366E0,3.9897457E1,1.4681118E0,3.244938E0,3.983824E1,1.1665411E0],"tree_param":{"num_deleted":"0","num_feature":"7","num_nodes":"25","size_leaf_vector":"1"}},{"base_weights":[-1.9695587E-3,3.622675E-1,-8.0263305E-1,-5.969835E-2,4.112125E-1,-4.9430338E-1,-5.2907158E-2,-5.2883442E-2,4.320231E-1,-5.4821104E-1,5.0938774E-2,2.287712E-2,-1.4380688E-3,-1.7835236E-3,-2.8759157E-2,2.8509466E-2,-1.1039066E-2],"categories":[],"categories_nodes":[],"categories_segments":[],"categories_sizes":[],"default_left":[0,0,0,0,0,0,0,0,0,0,0,0,0,0,0,0,0],"id":20,"left_children":[1,3,5,-1,7,9,-1,-1,11,13,15,-1,-1,-1,-1,-1,-1],"loss_changes":[1.057317E2,1.9472118E1,8.407684E0,0E0,7.8648605E0,1.5930119E0,0E0,0E0,2.8313446E0,6.5053463E-1,9.309288E-1,0E0,0E0,0E0,0E0,0E0,0E0],"parents":[2147483647,0,0,1,1,2,2,4,4,5,5,8,8,9,9,10,10],"right_children":[2,4,6,-1,8,10,-1,-1,12,14,16,-1,-1,-1,-1,-1,-1],"split_conditions":[8.517E-2,9E-1,4.2295E-1,-5.969835E-2,6.71E-1,3.8557E-1,-5.2907158E-2,-5.2883442E-2,4.29E-3,6.2348E-1,3.9645E-1,2.287712E-2,-1.4380688E-3,-1.7835236E-3,-2.8759157E-2,2.8509466E-2,-1.1039066E-2],"split_indices":[5,1,5,0,2,5,0,0,5,6,5,0,0,0,0,0,0],"split_type":[0,0,0,0,0,0,0,0,0,0,0,0,0,0,0,0,0],"sum_hessian":[3.6055563E2,2.4819469E2,1.1236095E2,6.854606E0,2.4134007E2,5.2247414E1,6.011353E1,2.6754336E0,2.3866464E2,4.7541573E1,4.705841E0,2.2614714E2,1.2517501E1,2.4928806E0,4.5048695E1,1.23924E0,3.4666011E0],"tree_param":{"num_deleted":"0","num_feature":"7","num_nodes":"17","size_leaf_vector":"1"}},{"base_weights":[1.6476775E-2,4.1308177E-1,-7.315794E-1,9.762346E-1,4.0551145E-2,-4.4695717E-1,-1.0250463E0,-5.003197E-2,1.0858202E0,-5.373912E-2,7.427792E-2,-5.4584313E-2,-3.8409466E-1,-9.034106E-1,-5.9469115E-2,6.009519E-2,4.5975868E-2,-4.1353475E-2,4.4306377E-3,-2.0738712E-2,3.1223146E-2,-4.602593E-2,-7.7827903E-3],"categories":[],"categories_nodes":[],"categories_segments":[],"categories_sizes":[],"default_left":[0,0,0,0,0,0,0,0,0,0,0,0,0,0,0,0,0,0,0,0,0,0,0],"id":21,"left_children":[1,3,5,7,9,11,13,-1,15,-1,17,-1,19,21,-1,-1,-1,-1,-1,-1,-1,-1,-1],"loss_changes":[1.0780575E2,4.977384E1,1.0058716E1,2.1556831E1,5.494781E0,2.243103E0,1.4920044E-1,0E0,6.3243866E-1,0E0,1.8907251E0,0E0,2.1587915E0,3.5996246E-1,0E0,0E0,0E0,0E0,0E0,0E0,0E0,0E0,0E0],"parents":[2147483647,0,0,1,1,2,2,3,3,4,4,5,5,6,6,8,8,10,10,12,12,13,13],"right_children":[2,4,6,8,10,12,14,-1,16,-1,18,-1,20,22,-1,-1,-1,-1,-1,-1,-1,-1,-1],"split_conditions":[4.29E-3,8.5E-1,4.2295E-1,9E-1,7.42E-1,1E0,7.0026E-1,-5.003197E-2,7E-1,-5.373912E-2,1E0,-5.4584313E-2,4.0487E-1,6.9409E-1,-5.9469115E-2,6.009519E-2,4.5975868E-2,-4.1353475E-2,4.4306377E-3,-2.0738712E-2,3.1223146E-2,-4.602593E-2,-7.7827903E-3],"split_indices":[5,0,5,1,2,0,5,0,0,0,0,0,5,5,0,0,0,0,0,0,0,0,0],"split_type":[0,0,0,0,0,0,0,0,0,0,0,0,0,0,0,0,0,0,0,0,0,0,0],"sum_hessian":[3.613518E2,2.3644238E2,1.2490941E2,9.349136E1,1.4295102E2,6.469107E1,6.021834E1,4.4833126E0,8.900805E1,3.2898374E0,1.396612E2,4.293183E0,6.0397884E1,3.833871E1,2.1879627E1,4.8751247E1,4.02568E1,1.2987968E0,1.383624E2,5.918623E1,1.211657E0,3.72553E1,1.0834129E0],"tree_param":{"num_deleted":"0","num_feature":"7","num_nodes":"23","size_leaf_vector":"1"}},{"base_weights":[1.2298447E-2,3.6086383E-1,-6.9668597E-1,9.306279E-1,1.621176E-2,-4.0042835E-1,-9.952231E-1,-5.08972E-2,1.0621164E0,-5.284375E-2,4.6911463E-2,-5.3790446E-2,-3.3104786E-1,-8.727983E-1,-5.81895E-2,5.937108E-2,4.4270817E-2,-4.0261243E-2,2.9935306E-3,-1.7616807E-2,1.1344932E-2,-4.579647E-2,5.9913564E-3],"categories":[],"categories_nodes":[],"categories_segments":[],"categories_sizes":[],"default_left":[0,0,0,0,0,0,0,0,0,0,0,0,0,0,0,0,0,0,0,0,0,0,0],"id":22,"left_children":[1,3,5,7,9,11,13,-1,15,-1,17,-1,19,21,-1,-1,-1,-1,-1,-1,-1,-1,-1],"loss_changes":[8.826834E1,4.7001778E1,1.0014034E1,2.4198296E1,4.997817E0,2.4911537E0,1.804924E-1,0E0,8.309097E-1,0E0,1.6713465E0,0E0,7.516036E-1,1.7186012E0,0E0,0E0,0E0,0E0,0E0,0E0,0E0,0E0,0E0],"parents":[2147483647,0,0,1,1,2,2,3,3,4,4,5,5,6,6,8,8,10,10,12,12,13,13],"right_children":[2,4,6,8,10,12,14,-1,16,-1,18,-1,20,22,-1,-1,-1,-1,-1,-1,-1,-1,-1],"split_conditions":[3.477E-2,8.5E-1,4.2295E-1,9E-1,7.42E-1,1E0,7.0544E-1,-5.08972E-2,7E-1,-5.284375E-2,1E0,-5.3790446E-2,4.0487E-1,6.9409E-1,-5.81895E-2,5.937108E-2,4.4270817E-2,-4.0261243E-2,2.9935306E-3,-1.7616807E-2,1.1344932E-2,-4.579647E-2,5.9913564E-3],"split_indices":[5,0,5,1,2,0,5,0,0,0,0,0,5,5,0,0,0,0,0,0,0,0,0],"split_type":[0,0,0,0,0,0,0,0,0,0,0,0,0,0,0,0,0,0,0,0,0,0,0],"sum_hessian":[3.5516013E2,2.3842953E2,1.1673058E2,8.9225525E1,1.4920401E2,5.9764114E1,5.6966473E1,5.2141175E0,8.4011406E1,3.220137E0,1.4598387E2,4.216163E0,5.554795E1,3.6578457E1,2.0388012E1,4.580749E1,3.820392E1,1.2710286E0,1.4471284E2,5.38614E1,1.6865488E0,3.5129303E1,1.4491559E0],"tree_param":{"num_deleted":"0","num_feature":"7","num_nodes":"23","size_leaf_vector":"1"}},{"base_weights":[-1.8442133E-2,8.033814E-1,-3.1064388E-1,5.9554376E-2,-5.998961E-2,-5.9482038E-2,-1.442801E-1,3.0773252E-1,-7.257284E-1,-8.445252E-3,1.9380102E-2,-1.906402E-2,-5.0075024E-2],"categories":[],"categories_nodes":[],"categories_segments":[],"categories_sizes":[],"default_left":[0,0,0,0,0,0,0,0,0,0,0,0,0],"id":23,"left_children":[1,3,5,-1,-1,-1,7,9,11,-1,-1,-1,-1],"loss_changes":[8.512944E1,7.3648926E1,3.8064354E1,0E0,0E0,0E0,5.8306637E1,4.825632E0,8.828068E0,0E0,0E0,0E0,0E0],"parents":[2147483647,0,0,1,1,2,2,6,6,7,7,8,8],"right_children":[2,4,6,-1,-1,-1,8,10,12,-1,-1,-1,-1],"split_conditions":[8.5E-1,9.67E-3,2.14E-2,5.9554376E-2,-5.998961E-2,-5.9482038E-2,1.0412E-1,9.6798E-1,4.2295E-1,-8.445252E-3,1.9380102E-2,-1.906402E-2,-5.0075024E-2],"split_indices":[0,6,6,0,0,0,5,6,5,0,0,0,0],"split_type":[0,0,0,0,0,0,0,0,0,0,0,0,0],"sum_hessian":[3.524625E2,9.1989815E1,2.604727E2,7.741237E1,1.4577452E1,4.047401E1,2.1999867E2,1.24041046E2,9.5957634E1,1.7642294E1,1.0639875E2,4.372559E1,5.2232044E1],"tree_param":{"num_deleted":"0","num_feature":"7","num_nodes":"13","size_leaf_vector":"1"}},{"base_weights":[-1.2260947E-2,8.222758E-1,-2.9619044E-1,-5.6878872E-2,1.0396017E0,-1.0500696E-1,-5.0569095E-2,5.810758E-2,4.3293875E-2,-5.468896E-2,-7.916019E-2,-1.5726803E-4,-1.6401423E-2],"categories":[],"categories_nodes":[],"categories_segments":[],"categories_sizes":[],"default_left":[0,0,0,0,0,0,0,0,0,0,0,0,0],"id":24,"left_children":[1,3,5,-1,7,9,-1,-1,-1,-1,11,-1,-1],"loss_changes":[8.175104E1,3.848867E1,3.508864E1,0E0,6.8343353E-1,5.1326027E0,0E0,0E0,0E0,0E0,3.7843304E0,0E0,0E0],"parents":[2147483647,0,0,1,1,2,2,4,4,5,5,10,10],"right_children":[2,4,6,-1,8,10,-1,-1,-1,-1,12,-1,-1],"split_conditions":[8.5E-1,9E-1,4.2295E-1,-5.6878872E-2,7E-1,7.43E-1,-5.0569095E-2,5.810758E-2,4.3293875E-2,-5.468896E-2,8.517E-2,-1.5726803E-4,-1.6401423E-2],"split_indices":[0,1,5,0,0,2,0,0,0,0,5,0,0],"split_type":[0,0,0,0,0,0,0,0,0,0,0,0,0],"sum_hessian":[3.429866E2,8.658791E1,2.5639868E2,8.220519E0,7.836739E1,2.0322092E2,5.3177765E1,4.2615566E1,3.575183E1,4.1243777E0,1.9909654E2,1.5328845E2,4.580809E1],"tree_param":{"num_deleted":"0","num_feature":"7","num_nodes":"13","size_leaf_vector":"1"}},{"base_weights":[-9.496402E-3,7.913578E-1,-2.788803E-1,5.842922E-2,-5.8918502E-2,-5.703773E-2,-1.1936372E-1,2.963751E-1,-6.715466E-1,-1.0749447E-2,1.8844483E-2,-1.7666845E-2,-4.6272222E-2],"categories":[],"categories_nodes":[],"categories_segments":[],"categories_sizes":[],"default_left":[0,0,0,0,0,0,0,0,0,0,0,0,0],"id":25,"left_children":[1,3,5,-1,-1,-1,7,9,11,-1,-1,-1,-1],"loss_changes":[7.413931E1,6.5651535E1,3.521488E1,0E0,0E0,0E0,5.0264435E1,5.232089E0,7.2658463E0,0E0,0E0,0E0,0E0],"parents":[2147483647,0,0,1,1,2,2,6,6,7,7,8,8],"right_children":[2,4,6,-1,-1,-1,8,10,12,-1,-1,-1,-1],"split_conditions":[8.5E-1,9.67E-3,9.67E-3,5.842922E-2,-5.8918502E-2,-5.703773E-2,1.0412E-1,9.6798E-1,4.2295E-1,-1.0749447E-2,1.8844483E-2,-1.7666845E-2,-4.6272222E-2],"split_indices":[0,6,6,0,0,0,5,6,5,0,0,0,0],"split_type":[0,0,0,0,0,0,0,0,0,0,0,0,0],"sum_hessian":[3.4163266E2,8.550281E1,2.5612985E2,7.210127E1,1.3401534E1,3.9040607E1,2.1708923E2,1.2411001E2,9.2979225E1,1.6655766E1,1.0745424E2,4.2325012E1,5.0654213E1],"tree_param":{"num_deleted":"0","num_feature":"7","num_nodes":"13","size_leaf_vector":"1"}},{"base_weights":[-2.4496006E-2,7.5988585E-1,-2.8262147E-1,5.7186373E-2,-5.8230847E-2,-1.1497432E0,-1.0426436E-1,-5.9899207E-2,-4.438435E-1,3.035132E-1,-6.0831946E-1,1.6428843E-2,-4.0712785E-2,5.8547765E-2,1.2215908E-2,-1.8301485E-2,-4.6467286E-2],"categories":[],"categories_nodes":[],"categories_segments":[],"categories_sizes":[],"default_left":[0,0,0,0,0,0,0,0,0,0,0,0,0,0,0,0,0],"id":26,"left_children":[1,3,5,-1,-1,7,9,-1,11,13,15,-1,-1,-1,-1,-1,-1],"loss_changes":[6.778375E1,6.2571808E1,3.8826485E1,0E0,0E0,9.278412E-1,4.3340836E1,0E0,1.5064981E0,5.707958E0,6.9891357E0,0E0,0E0,0E0,0E0,0E0,0E0],"parents":[2147483647,0,0,1,1,2,2,5,5,6,6,8,8,9,9,10,10],"right_children":[2,4,6,-1,-1,8,10,-1,12,14,16,-1,-1,-1,-1,-1,-1],"split_conditions":[8.5E-1,9.67E-3,4.5746E-1,5.7186373E-2,-5.8230847E-2,1.4869E-1,7.874E-2,-5.9899207E-2,4.4034E-1,8.7284E-1,5.0771E-1,1.6428843E-2,-4.0712785E-2,5.8547765E-2,1.2215908E-2,-1.8301485E-2,-4.6467286E-2],"split_indices":[0,6,6,0,0,5,5,0,5,6,5,0,0,0,0,0,0],"split_type":[0,0,0,0,0,0,0,0,0,0,0,0,0,0,0,0,0],"sum_hessian":[3.3272525E2,8.190168E1,2.5082358E2,6.862096E1,1.3280727E1,4.1860996E1,2.0896257E2,3.853072E1,3.3302765E0,1.1573307E2,9.322951E1,1.1160082E0,2.2142684E0,6.1934333E0,1.09539635E2,5.4349907E1,3.8879597E1],"tree_param":{"num_deleted":"0","num_feature":"7","num_nodes":"17","size_leaf_vector":"1"}},{"base_weights":[-1.8939743E-2,7.3834324E-1,-2.690934E-1,5.665433E-2,-5.7703506E-2,-5.5016506E-2,-1.20069236E-1,-5.3691663E-2,-9.6315674E-2,-2.1405226E-2,-2.2948913E-3],"categories":[],"categories_nodes":[],"categories_segments":[],"categories_sizes":[],"default_left":[0,0,0,0,0,0,0,0,0,0,0],"id":27,"left_children":[1,3,5,-1,-1,-1,7,-1,9,-1,-1],"loss_changes":[6.1684376E1,6.171168E1,3.0181198E1,0E0,0E0,0E0,4.6231623E0,0E0,3.4039102E0,0E0,0E0],"parents":[2147483647,0,0,1,1,2,2,6,6,8,8],"right_children":[2,4,6,-1,-1,-1,8,-1,10,-1,-1],"split_conditions":[8.5E-1,9.67E-3,2.14E-2,5.665433E-2,-5.7703506E-2,-5.5016506E-2,7.75E-1,-5.3691663E-2,9.6914E-1,-2.1405226E-2,-2.2948913E-3],"split_indices":[0,6,6,0,0,0,2,0,6,0,0],"split_type":[0,0,0,0,0,0,0,0,0,0,0],"sum_hessian":[3.2357047E2,7.986025E1,2.437102E2,6.6409065E1,1.3451185E1,3.6079586E1,2.0763063E2,3.9711697E0,2.0365945E2,2.587706E1,1.777824E2],"tree_param":{"num_deleted":"0","num_feature":"7","num_nodes":"11","size_leaf_vector":"1"}},{"base_weights":[-1.4396968E-2,7.403628E-1,-2.4506307E-1,5.610257E-2,-5.6448776E-2,-8.433161E-1,-3.8532883E-2,-5.4152872E-2,-5.076111E-1,-5.1512003E-2,-1.4427762E-2,3.6081285E-3,-6.306823E-2,-4.9133223E-2,2.5423657E-4],"categories":[],"categories_nodes":[],"categories_segments":[],"categories_sizes":[],"default_left":[0,0,0,0,0,0,0,0,0,0,0,0,0,0,0],"id":28,"left_children":[1,3,5,-1,-1,7,9,-1,11,-1,13,-1,-1,-1,-1],"loss_changes":[5.6272903E1,5.5253975E1,3.055034E1,0E0,0E0,4.558651E0,4.4087214E0,0E0,1.2469647E1,0E0,3.4372327E0,0E0,0E0,0E0,0E0],"parents":[2147483647,0,0,1,1,2,2,5,5,6,6,8,8,10,10],"right_children":[2,4,6,-1,-1,8,10,-1,12,-1,14,-1,-1,-1,-1],"split_conditions":[8.5E-1,9.67E-3,9.7349E-1,5.610257E-2,-5.6448776E-2,2.14E-2,7.75E-1,-5.4152872E-2,8.8165E-1,-5.1512003E-2,1E0,3.6081285E-3,-6.306823E-2,-4.9133223E-2,2.5423657E-4],"split_indices":[0,6,6,0,0,6,2,0,6,0,1,0,0,0,0],"split_type":[0,0,0,0,0,0,0,0,0,0,0,0,0,0,0],"sum_hessian":[3.2118423E2,7.466479E1,2.4651944E2,6.2336452E1,1.2328331E1,6.2472622E1,1.8404681E2,3.5146667E1,2.7325956E1,3.3769388E0,1.8066988E2,1.5956649E1,1.1369307E1,2.593946E0,1.7807593E2],"tree_param":{"num_deleted":"0","num_feature":"7","num_nodes":"15","size_leaf_vector":"1"}},{"base_weights":[-7.877326E-3,7.511897E-1,-2.4322096E-1,5.5678822E-2,-5.5853635E-2,-5.3414505E-2,-1.0058613E-1,-5.112241E-2,-7.948974E-2,-2.0451834E-2,-1.4487597E-3],"categories":[],"categories_nodes":[],"categories_segments":[],"categories_sizes":[],"default_left":[0,0,0,0,0,0,0,0,0,0,0],"id":29,"left_children":[1,3,5,-1,-1,-1,7,-1,9,-1,-1],"loss_changes":[5.6350925E1,5.178916E1,2.8226236E1,0E0,0E0,0E0,3.9323678E0,0E0,3.3649008E0,0E0,0E0],"parents":[2147483647,0,0,1,1,2,2,6,6,8,8],"right_children":[2,4,6,-1,-1,-1,8,-1,10,-1,-1],"split_conditions":[8.5E-1,9.67E-3,2.14E-2,5.5678822E-2,-5.5853635E-2,-5.3414505E-2,7.75E-1,-5.112241E-2,9.7591E-1,-2.0451834E-2,-1.4487597E-3],"split_indices":[0,6,6,0,0,0,2,0,6,0,0],"split_type":[0,0,0,0,0,0,0,0,0,0,0],"sum_hessian":[3.1341852E2,7.36569E1,2.3976161E2,6.202907E1,1.1627825E1,3.4383137E1,2.0537848E2,3.532916E0,2.0184555E2,2.5884268E1,1.7596129E2],"tree_param":{"num_deleted":"0","num_feature":"7","num_nodes":"11","size_leaf_vector":"1"}},{"base_weights":[-1.8622492E-2,2.6524243E-1,-6.5335023E-1,-5.4863673E-2,3.017853E-1,-3.8093612E-1,-8.9333844E-1,-4.26196E-2,3.1654096E-1,-4.652025E-1,2.0535086E-1,-7.557948E-1,-5.433938E-2,1.6855408E-2,-6.5749027E-3,-4.6318334E-2,-1.8043052E-2,2.1456204E-2,-2.1475258E-3,-4.022814E-2,1.25370575E-2],"categories":[],"categories_nodes":[],"categories_segments":[],"categories_sizes":[],"default_left":[0,0,0,0,0,0,0,0,0,0,0,0,0,0,0,0,0,0,0,0,0],"id":30,"left_children":[1,3,5,-1,7,9,11,-1,13,15,17,19,-1,-1,-1,-1,-1,-1,-1,-1,-1],"loss_changes":[5.654706E1,1.1130866E1,5.9995766E0,0E0,3.880722E0,2.4255714E0,5.306206E-1,0E0,1.980156E0,1.6646605E0,3.8629034E-1,1.8206635E0,0E0,0E0,0E0,0E0,0E0,0E0,0E0,0E0,0E0],"parents":[2147483647,0,0,1,1,2,2,4,4,5,5,6,6,8,8,9,9,10,10,11,11],"right_children":[2,4,6,-1,8,10,12,-1,14,16,18,20,-1,-1,-1,-1,-1,-1,-1,-1,-1],"split_conditions":[8.517E-2,9E-1,4.2295E-1,-5.4863673E-2,6.77E-1,3.7721E-1,7.0544E-1,-4.26196E-2,3.477E-2,1.3542E-1,3.9645E-1,6.9409E-1,-5.433938E-2,1.6855408E-2,-6.5749027E-3,-4.6318334E-2,-1.8043052E-2,2.1456204E-2,-2.1475258E-3,-4.022814E-2,1.25370575E-2],"split_indices":[5,1,5,0,2,5,5,0,5,5,5,5,0,0,0,0,0,0,0,0,0],"split_type":[0,0,0,0,0,0,0,0,0,0,0,0,0,0,0,0,0,0,0,0,0],"sum_hessian":[3.1188E2,2.159046E2,9.597541E1,4.8811655E0,2.1102344E2,4.6162735E1,4.981268E1,1.9472116E0,2.0907622E2,4.054218E1,5.620556E0,3.1980947E1,1.7831732E1,2.0013657E2,8.939648E0,6.026829E0,3.451535E1,2.5732565E0,3.0472991E0,3.0694426E1,1.2865229E0],"tree_param":{"num_deleted":"0","num_feature":"7","num_nodes":"21","size_leaf_vector":"1"}},{"base_weights":[1.0410468E-2,2.8906557E-1,-5.964743E-1,8.269665E-1,4.8033E-2,-3.431994E-1,-8.47252E-1,-5.027352E-2,9.522068E-1,-4.50225E-2,6.809689E-2,-4.6586018E-2,-2.8418916E-1,-6.88057E-1,-5.3669866E-2,5.4918773E-2,3.7839554E-2,-3.4853887E-2,3.909914E-3,-1.6745158E-2,1.3712905E-2,-3.7037294E-2,2.2117628E-2],"categories":[],"categories_nodes":[],"categories_segments":[],"categories_sizes":[],"default_left":[0,0,0,0,0,0,0,0,0,0,0,0,0,0,0,0,0,0,0,0,0,0,0],"id":31,"left_children":[1,3,5,7,9,11,13,-1,15,-1,17,-1,19,21,-1,-1,-1,-1,-1,-1,-1,-1,-1],"loss_changes":[5.2642254E1,2.7616074E1,5.931164E0,1.6091305E1,2.8847256E0,1.4861636E0,1.0089874E0,0E0,9.4654083E-1,0E0,1.1846957E0,0E0,1.4303625E0,2.1902952E0,0E0,0E0,0E0,0E0,0E0,0E0,0E0,0E0,0E0],"parents":[2147483647,0,0,1,1,2,2,3,3,4,4,5,5,6,6,8,8,10,10,12,12,13,13],"right_children":[2,4,6,8,10,12,14,-1,16,-1,18,-1,20,22,-1,-1,-1,-1,-1,-1,-1,-1,-1],"split_conditions":[7.537E-2,8.5E-1,4.2295E-1,9E-1,7.42E-1,1E0,7.0544E-1,-5.027352E-2,7E-1,-4.50225E-2,1E0,-4.6586018E-2,3.9063E-1,6.9547E-1,-5.3669866E-2,5.4918773E-2,3.7839554E-2,-3.4853887E-2,3.909914E-3,-1.6745158E-2,1.3712905E-2,-3.7037294E-2,2.2117628E-2],"split_indices":[5,0,5,1,2,0,5,0,0,0,0,0,5,5,0,0,0,0,0,0,0,0,0],"split_type":[0,0,0,0,0,0,0,0,0,0,0,0,0,0,0,0,0,0,0,0,0,0,0],"sum_hessian":[3.0926764E2,2.1230849E2,9.695914E1,6.494434E1,1.4736414E2,4.9417797E1,4.7541344E1,3.705114E0,6.123923E1,2.1437392E0,1.452204E2,3.1557496E0,4.6262047E1,3.0273127E1,1.7268217E1,3.2390675E1,2.8848557E1,1.006031E0,1.4421437E2,4.2777603E1,3.484445E0,2.9254284E1,1.0188434E0],"tree_param":{"num_deleted":"0","num_feature":"7","num_nodes":"23","size_leaf_vector":"1"}},{"base_weights":[-4.007975E-2,7.1775717E-1,-2.5222924E-1,5.4668963E-2,-5.5102725E-2,-5.266278E-2,-1.1983196E-1,-5.016306E-2,-9.893088E-2,-4.857185E-2,-4.101245E-3],"categories":[],"categories_nodes":[],"categories_segments":[],"categories_sizes":[],"default_left":[0,0,0,0,0,0,0,0,0,0,0],"id":32,"left_children":[1,3,5,-1,-1,-1,7,-1,9,-1,-1],"loss_changes":[4.972386E1,4.7452568E1,2.5485092E1,0E0,0E0,0E0,3.7481923E0,0E0,2.9392002E0,0E0,0E0],"parents":[2147483647,0,0,1,1,2,2,6,6,8,8],"right_children":[2,4,6,-1,-1,-1,8,-1,10,-1,-1],"split_conditions":[8.5E-1,9.67E-3,2.14E-2,5.4668963E-2,-5.5102725E-2,-5.266278E-2,7.75E-1,-5.016306E-2,1E0,-4.857185E-2,-4.101245E-3],"split_indices":[0,6,6,0,0,0,2,0,1,0,0],"split_type":[0,0,0,0,0,0,0,0,0,0,0],"sum_hessian":[3.0715057E2,6.665684E1,2.4049374E2,5.5583244E1,1.1073598E1,3.3125217E1,2.0736853E2,3.7064602E0,2.0366206E2,2.7980003E0,2.0086406E2],"tree_param":{"num_deleted":"0","num_feature":"7","num_nodes":"11","size_leaf_vector":"1"}},{"base_weights":[1.4257373E-2,2.4128234E-1,-6.17949E-1,7.807798E-1,2.7506232E-2,-2.8918603E-1,-8.4575063E-1,-5.0741326E-2,9.270497E-1,-4.594231E-2,4.907719E-2,-3.5753432E-1,2.2473234E-1,-6.305587E-1,-4.9252007E-2,5.4162093E-2,3.5914812E-2,1.5113238E-3,5.5950582E-2,-1.3718851E-2,-3.6654755E-2,-1.6854498E-4,2.1592455E-2,-4.089058E-2,8.151646E-3],"categories":[],"categories_nodes":[],"categories_segments":[],"categories_sizes":[],"default_left":[0,0,0,0,0,0,0,0,0,0,0,0,0,0,0,0,0,0,0,0,0,0,0,0,0],"id":33,"left_children":[1,3,5,7,9,11,13,-1,15,-1,17,19,21,23,-1,-1,-1,-1,-1,-1,-1,-1,-1,-1,-1],"loss_changes":[4.3365723E1,2.5612923E1,5.7347393E0,1.749833E1,3.315881E0,1.2815497E0,7.768936E-1,0E0,1.1396446E0,0E0,3.1448839E0,7.535503E-1,2.2011234E-1,3.2697134E0,0E0,0E0,0E0,0E0,0E0,0E0,0E0,0E0,0E0,0E0,0E0],"parents":[2147483647,0,0,1,1,2,2,3,3,4,4,5,5,6,6,8,8,10,10,11,11,12,12,13,13],"right_children":[2,4,6,8,10,12,14,-1,16,-1,18,20,22,24,-1,-1,-1,-1,-1,-1,-1,-1,-1,-1,-1],"split_conditions":[1.8768E-1,8.5E-1,4.2295E-1,9E-1,7.58E-1,3.9063E-1,6.1428E-1,-5.0741326E-2,7E-1,-4.594231E-2,1.6504E-1,3.5784E-1,4.0487E-1,5.5714E-1,-4.9252007E-2,5.4162093E-2,3.5914812E-2,1.5113238E-3,5.5950582E-2,-1.3718851E-2,-3.6654755E-2,-1.6854498E-4,2.1592455E-2,-4.089058E-2,8.151646E-3],"split_indices":[5,0,5,1,2,5,5,0,0,0,5,5,5,5,0,0,0,0,0,0,0,0,0,0,0],"split_type":[0,0,0,0,0,0,0,0,0,0,0,0,0,0,0,0,0,0,0,0,0,0,0,0,0],"sum_hessian":[3.0010526E2,2.212668E2,7.883844E1,6.204194E1,1.5922487E2,3.3197426E1,4.5641018E1,4.2259703E0,5.7815968E1,2.6214447E0,1.5660342E2,2.9569185E1,3.628241E0,2.0105888E1,2.5535128E1,3.0675245E1,2.7140724E1,1.5490251E2,1.7009099E0,2.5625683E1,3.943502E0,2.1947873E0,1.4334537E0,1.6242785E1,3.8631043E0],"tree_param":{"num_deleted":"0","num_feature":"7","num_nodes":"25","size_leaf_vector":"1"}},{"base_weights":[-4.3349895E-3,2.516948E-1,-5.7313794E-1,8.088833E-1,2.1819092E-2,-3.054286E-1,-8.356269E-1,-4.8587453E-2,9.23431E-1,-4.4311263E-2,4.249539E-2,-4.5447472E-2,-2.4320936E-1,-6.957028E-1,-5.2087136E-2,5.3772908E-2,3.6277227E-2,-3.6656883E-2,2.6957206E-3,-3.551009E-2,-7.944471E-3,-3.7525512E-2,2.3111068E-2],"categories":[],"categories_nodes":[],"categories_segments":[],"categories_sizes":[],"default_left":[0,0,0,0,0,0,0,0,0,0,0,0,0,0,0,0,0,0,0,0,0,0,0],"id":34,"left_children":[1,3,5,7,9,11,13,-1,15,-1,17,-1,19,21,-1,-1,-1,-1,-1,-1,-1,-1,-1],"loss_changes":[4.35239E1,2.6381588E1,6.2635155E0,1.31700325E1,2.7964344E0,1.5626788E0,6.095276E-1,0E0,9.3587875E-1,0E0,1.3204371E0,0E0,1.6365962E0,2.2867718E0,0E0,0E0,0E0,0E0,0E0,0E0,0E0,0E0,0E0],"parents":[2147483647,0,0,1,1,2,2,3,3,4,4,5,5,6,6,8,8,10,10,12,12,13,13],"right_children":[2,4,6,8,10,12,14,-1,16,-1,18,-1,20,22,-1,-1,-1,-1,-1,-1,-1,-1,-1],"split_conditions":[8.517E-2,8.5E-1,4.2295E-1,9E-1,7.42E-1,1E0,7.0544E-1,-4.8587453E-2,7E-1,-4.4311263E-2,1E0,-4.5447472E-2,1.3542E-1,6.9547E-1,-5.2087136E-2,5.3772908E-2,3.6277227E-2,-3.6656883E-2,2.6957206E-3,-3.551009E-2,-7.944471E-3,-3.7525512E-2,2.3111068E-2],"split_indices":[5,0,5,1,2,0,5,0,0,0,0,0,5,5,0,0,0,0,0,0,0,0,0],"split_type":[0,0,0,0,0,0,0,0,0,0,0,0,0,0,0,0,0,0,0,0,0,0,0],"sum_hessian":[2.968747E2,2.0510863E2,9.176607E1,5.9169865E1,1.4593877E2,4.6502407E1,4.526366E1,3.1240156E0,5.604585E1,2.3170848E0,1.4362167E2,3.0741932E0,4.3428215E1,2.9567032E1,1.5696628E1,2.9187613E1,2.6858238E1,1.1667601E0,1.4245491E2,5.5068293E0,3.7921387E1,2.8566748E1,1.0002859E0],"tree_param":{"num_deleted":"0","num_feature":"7","num_nodes":"23","size_leaf_vector":"1"}},{"base_weights":[-1.649693E-2,1.9665079E-1,-6.8631E-1,7.5412166E-1,4.974982E-3,-5.498712E-1,-4.708259E-2,5.3566545E-2,-5.4068357E-2,-9.652236E-1,2.6427227E-1,-6.12225E-1,1.1150362E-1,-5.103856E-2,2.3552064E-2,5.4665994E-2,1.100484E-2,-2.5539348E-2,-5.1829E-2,1.9757934E-2,-3.4468826E-3],"categories":[],"categories_nodes":[],"categories_segments":[],"categories_sizes":[],"default_left":[0,0,0,0,0,0,0,0,0,0,0,0,0,0,0,0,0,0,0,0,0],"id":35,"left_children":[1,3,5,7,9,11,-1,-1,-1,13,15,17,19,-1,-1,-1,-1,-1,-1,-1,-1],"loss_changes":[4.2318714E1,2.4029688E1,1.9748764E0,3.4660786E1,4.261398E1,2.0904493E0,0E0,0E0,0E0,3.3310394E0,4.654209E0,1.4060688E0,2.8677243E-1,0E0,0E0,0E0,0E0,0E0,0E0,0E0,0E0],"parents":[2147483647,0,0,1,1,2,2,3,3,4,4,5,5,9,9,10,10,11,11,12,12],"right_children":[2,4,6,8,10,12,-1,-1,-1,14,16,18,20,-1,-1,-1,-1,-1,-1,-1,-1],"split_conditions":[2.1814E-1,8.5E-1,6.1428E-1,9.67E-3,5.3123E-1,5.5714E-1,-4.708259E-2,5.3566545E-2,-5.4068357E-2,1.0784E-1,8.7284E-1,5.0771E-1,5.6909E-1,-5.103856E-2,2.3552064E-2,5.4665994E-2,1.100484E-2,-2.5539348E-2,-5.1829E-2,1.9757934E-2,-3.4468826E-3],"split_indices":[5,0,5,6,6,5,0,0,0,5,6,5,5,0,0,0,0,0,0,0,0],"split_type":[0,0,0,0,0,0,0,0,0,0,0,0,0,0,0,0,0,0,0,0,0],"sum_hessian":[2.9446826E2,2.2391917E2,7.054909E1,5.654092E1,1.6737825E2,4.8035416E1,2.251367E1,4.856435E1,7.9765697E0,3.4725452E1,1.326528E2,4.396477E1,4.0706425E0,3.3710968E1,1.0144845E0,5.5093117E0,1.27143486E2,3.7261456E1,6.7033167E0,1.1200143E0,2.9506283E0],"tree_param":{"num_deleted":"0","num_feature":"7","num_nodes":"21","size_leaf_vector":"1"}},{"base_weights":[-3.364052E-2,2.3321389E-1,-5.251584E-1,-5.242155E-2,2.676305E-1,-3.1659E-1,-8.02225E-1,-3.812251E-2,2.8041694E-1,-3.450704E-1,2.7379889E-2,-6.833643E-1,-5.3159695E-2,1.8802246E-2,1.07567E-2,-1.1885146E-2,-2.7315555E-2,-4.303953E-2,-2.2980662E-2],"categories":[],"categories_nodes":[],"categories_segments":[],"categories_sizes":[],"default_left":[0,0,0,0,0,0,0,0,0,0,0,0,0,0,0,0,0,0,0],"id":36,"left_children":[1,3,5,-1,7,9,11,-1,13,15,-1,17,-1,-1,-1,-1,-1,-1,-1],"loss_changes":[3.8666073E1,8.712138E0,5.7391415E0,0E0,2.676096E0,1.6859083E0,6.3484E-1,0E0,1.076438E0,1.1556077E0,0E0,9.1261387E-1,0E0,0E0,0E0,0E0,0E0,0E0,0E0],"parents":[2147483647,0,0,1,1,2,2,4,4,5,5,6,6,8,8,9,9,11,11],"right_children":[2,4,6,-1,8,10,12,-1,14,16,-1,18,-1,-1,-1,-1,-1,-1,-1],"split_conditions":[4.29E-3,9E-1,4.2295E-1,-5.242155E-2,6.77E-1,4.0487E-1,7.7142E-1,-3.812251E-2,1.5184E-1,2.6562E-1,2.7379889E-2,5.5714E-1,-5.3159695E-2,1.8802246E-2,1.07567E-2,-1.1885146E-2,-2.7315555E-2,-4.303953E-2,-2.2980662E-2],"split_indices":[5,1,5,0,2,5,5,0,6,5,0,5,0,0,0,0,0,0,0],"split_type":[0,0,0,0,0,0,0,0,0,0,0,0,0,0,0,0,0,0,0],"sum_hessian":[2.9285867E2,1.901488E2,1.0270988E2,4.202129E0,1.8594667E2,5.982091E1,4.288896E1,1.56102E0,1.8438565E2,5.8493874E1,1.3270386E0,3.195385E1,1.0935112E1,7.287559E1,1.1151007E2,3.9565674E1,1.8928198E1,1.6233883E1,1.5719968E1],"tree_param":{"num_deleted":"0","num_feature":"7","num_nodes":"19","size_leaf_vector":"1"}},{"base_weights":[3.5955564E-3,6.817732E-1,-1.7003813E-1,5.3141892E-2,-5.4069996E-2,-1.0271966E0,-2.8484203E-2,-5.2741654E-2,-1.7882997E-2,2.1014066E-1,-5.9552604E-1,-1.1787287E-2,1.4011556E-2,-1.5585682E-2,-4.1308902E-2],"categories":[],"categories_nodes":[],"categories_segments":[],"categories_sizes":[],"default_left":[0,0,0,0,0,0,0,0,0,0,0,0,0,0,0],"id":37,"left_children":[1,3,5,-1,-1,7,9,-1,-1,11,13,-1,-1,-1,-1],"loss_changes":[3.3948853E1,4.0633606E1,2.782311E1,0E0,0E0,2.2423172E-1,2.6922495E1,0E0,0E0,4.4453254E0,3.5993557E0,0E0,0E0,0E0,0E0],"parents":[2147483647,0,0,1,1,2,2,5,5,6,6,9,9,10,10],"right_children":[2,4,6,-1,-1,8,10,-1,-1,12,14,-1,-1,-1,-1],"split_conditions":[8.5E-1,9.67E-3,2.14E-2,5.3141892E-2,-5.4069996E-2,1.4869E-1,2.6562E-1,-5.2741654E-2,-1.7882997E-2,9.687E-1,5.0771E-1,-1.1787287E-2,1.4011556E-2,-1.5585682E-2,-4.1308902E-2],"split_indices":[0,6,6,0,0,5,5,0,0,6,5,0,0,0,0],"split_type":[0,0,0,0,0,0,0,0,0,0,0,0,0,0,0],"sum_hessian":[2.863175E2,5.776658E1,2.2855093E2,4.7827168E1,9.939411E0,3.150721E1,1.9704372E2,2.9705587E1,1.8016216E0,1.3912569E2,5.7918034E1,1.8577826E1,1.2054786E2,2.7020866E1,3.0897165E1],"tree_param":{"num_deleted":"0","num_feature":"7","num_nodes":"15","size_leaf_vector":"1"}},{"base_weights":[-4.8117332E-2,6.630213E-1,-2.2709744E-1,5.2779514E-2,-5.3724077E-2,-9.900853E-1,-8.540935E-2,-5.2205164E-2,-1.4972769E-1,2.4282725E-1,-5.691693E-1,2.023577E-2,-3.0416464E-2,5.4802418E-2,9.352E-3,-1.851285E-2,-4.246426E-2],"categories":[],"categories_nodes":[],"categories_segments":[],"categories_sizes":[],"default_left":[0,0,0,0,0,0,0,0,0,0,0,0,0,0,0,0,0],"id":38,"left_children":[1,3,5,-1,-1,7,9,-1,11,13,15,-1,-1,-1,-1,-1,-1],"loss_changes":[3.5859585E1,3.9786644E1,2.4227232E1,0E0,0E0,1.4382324E0,3.0428694E1,0E0,1.0824864E0,5.237915E0,3.9987755E0,0E0,0E0,0E0,0E0,0E0,0E0],"parents":[2147483647,0,0,1,1,2,2,5,5,6,6,8,8,9,9,10,10],"right_children":[2,4,6,-1,-1,8,10,-1,12,14,16,-1,-1,-1,-1,-1,-1],"split_conditions":[8.5E-1,9.67E-3,4.5746E-1,5.2779514E-2,-5.3724077E-2,1.4869E-1,1.0412E-1,-5.2205164E-2,4.5522E-1,8.7284E-1,5.0771E-1,2.023577E-2,-3.0416464E-2,5.4802418E-2,9.352E-3,-1.851285E-2,-4.246426E-2],"split_indices":[0,6,6,0,0,5,5,0,5,6,5,0,0,0,0,0,0],"split_type":[0,0,0,0,0,0,0,0,0,0,0,0,0,0,0,0,0],"sum_hessian":[2.795555E2,5.5667664E1,2.2388783E2,4.5728333E1,9.939329E0,3.412696E1,1.8976088E2,3.1837973E1,2.288989E0,1.1334979E2,7.641108E1,1.0894092E0,1.1995798E0,5.812061E0,1.07537735E2,4.6039734E1,3.0371344E1],"tree_param":{"num_deleted":"0","num_feature":"7","num_nodes":"17","size_leaf_vector":"1"}},{"base_weights":[6.853198E-3,1.4784509E-1,-8.314649E-1,-5.3302914E-2,1.8150271E-1,-7.363424E-1,-5.156411E-2,2.8922805E-1,-1.6545811E-1,-7.5783324E-1,-4.203758E-3,-4.043817E-2,1.5210439E-2,-2.7113898E-2,-3.8067512E-3,-4.37539E-2,-2.958758E-2],"categories":[],"categories_nodes":[],"categories_segments":[],"categories_sizes":[],"default_left":[0,0,0,0,0,0,0,0,0,0,0,0,0,0,0,0,0],"id":39,"left_children":[1,3,5,-1,7,9,-1,11,13,15,-1,-1,-1,-1,-1,-1,-1],"loss_changes":[3.3017677E1,9.961923E0,5.0678253E-3,0E0,8.77496E0,3.6725235E-1,0E0,3.1827316E0,1.8421057E0,5.930519E-2,0E0,0E0,0E0,0E0,0E0,0E0,0E0],"parents":[2147483647,0,0,1,1,2,2,4,4,5,5,7,7,8,8,9,9],"right_children":[2,4,6,-1,8,10,-1,12,14,16,-1,-1,-1,-1,-1,-1,-1],"split_conditions":[4.2295E-1,9E-1,7.7142E-1,-5.3302914E-2,1.898E-2,7.4526E-1,-5.156411E-2,6.53E-1,9.7887E-1,5.5714E-1,-4.203758E-3,-4.043817E-2,1.5210439E-2,-2.7113898E-2,-3.8067512E-3,-4.37539E-2,-2.958758E-2],"split_indices":[5,1,5,0,5,5,0,2,6,5,0,0,0,0,0,0,0],"split_type":[0,0,0,0,0,0,0,0,0,0,0,0,0,0,0,0,0],"sum_hessian":[2.7730664E2,2.3808769E2,3.9218952E1,5.595771E0,2.3249191E2,2.9744322E1,9.474632E0,1.7753635E2,5.4955566E1,2.8638884E1,1.1054372E0,1.6764529E0,1.758599E2,9.558971E0,4.5396595E1,1.4285282E1,1.4353601E1],"tree_param":{"num_deleted":"0","num_feature":"7","num_nodes":"17","size_leaf_vector":"1"}},{"base_weights":[-1.05713075E-2,1.7223878E-1,-6.1095357E-1,-5.205989E-2,2.0427309E-1,-4.8714504E-1,-5.247454E-2,-4.0451977E-2,2.1698071E-1,-9.524168E-1,-4.2397815E-1,1.2941782E-2,-1.2364433E-3,-1.2048311E-2,-5.3925306E-2,2.4456955E-2,-2.5099663E-2],"categories":[],"categories_nodes":[],"categories_segments":[],"categories_sizes":[],"default_left":[0,0,0,0,0,0,0,0,0,0,0,0,0,0,0,0,0],"id":40,"left_children":[1,3,5,-1,7,9,-1,-1,11,13,15,-1,-1,-1,-1,-1,-1],"loss_changes":[2.9942795E1,8.3438E0,2.9459648E0,0E0,2.8105812E0,1.1104279E0,0E0,0E0,2.0589705E0,2.2062016E-1,3.605505E0,0E0,0E0,0E0,0E0,0E0,0E0],"parents":[2147483647,0,0,1,1,2,2,4,4,5,5,8,8,9,9,10,10],"right_children":[2,4,6,-1,8,10,-1,-1,12,14,16,-1,-1,-1,-1,-1,-1],"split_conditions":[2.1232E-1,9E-1,7.0544E-1,-5.205989E-2,6.88E-1,2.4073E-1,-5.247454E-2,-4.0451977E-2,4.29E-3,2.1814E-1,2.6562E-1,1.2941782E-2,-1.2364433E-3,-1.2048311E-2,-5.3925306E-2,2.4456955E-2,-2.5099663E-2],"split_indices":[5,1,5,0,2,5,0,0,5,5,5,0,0,0,0,0,0],"split_type":[0,0,0,0,0,0,0,0,0,0,0,0,0,0,0,0,0],"sum_hessian":[2.708538E2,2.0817868E2,6.2675106E1,4.544223E0,2.0363446E2,5.052239E1,1.2152717E1,1.745947E0,2.0188852E2,4.356404E0,4.6165985E1,1.720288E2,2.9859722E1,1.0940992E0,3.2623048E0,3.2190661E0,4.294692E1],"tree_param":{"num_deleted":"0","num_feature":"7","num_nodes":"17","size_leaf_vector":"1"}},{"base_weights":[-1.797754E-2,6.7536885E-1,-1.7881843E-1,5.221674E-2,-5.2462436E-2,-9.9920315E-1,-3.465829E-2,-5.293398E-2,-9.731101E-2,2.3820852E-1,-4.3725333E-1,2.1968886E-2,-2.8839333E-2,4.8135478E-2,9.204089E-3,-1.2199454E-2,-3.8014516E-2],"categories":[],"categories_nodes":[],"categories_segments":[],"categories_sizes":[],"default_left":[0,0,0,0,0,0,0,0,0,0,0,0,0,0,0,0,0],"id":41,"left_children":[1,3,5,-1,-1,7,9,-1,11,13,15,-1,-1,-1,-1,-1,-1],"loss_changes":[3.0481003E1,3.3848747E1,2.6193623E1,0E0,0E0,1.6730385E0,2.0939445E1,0E0,1.063915E0,4.2811794E0,4.6198864E0,0E0,0E0,0E0,0E0,0E0,0E0],"parents":[2147483647,0,0,1,1,2,2,5,5,6,6,8,8,9,9,10,10],"right_children":[2,4,6,-1,-1,8,10,-1,12,14,16,-1,-1,-1,-1,-1,-1],"split_conditions":[8.5E-1,9.67E-3,3.896E-1,5.221674E-2,-5.2462436E-2,1.4869E-1,7.874E-2,-5.293398E-2,4.5522E-1,8.7284E-1,5.0771E-1,2.1968886E-2,-2.8839333E-2,4.8135478E-2,9.204089E-3,-1.2199454E-2,-3.8014516E-2],"split_indices":[0,6,6,0,0,5,5,0,5,6,5,0,0,0,0,0,0],"split_type":[0,0,0,0,0,0,0,0,0,0,0,0,0,0,0,0,0],"sum_hessian":[2.7124405E2,5.0472076E1,2.2077196E2,4.190199E1,8.570088E0,3.210994E1,1.8866202E2,2.9960323E1,2.149615E0,1.1269146E2,7.5970566E1,1.0537527E0,1.0958624E0,6.6669064E0,1.0602455E2,4.863116E1,2.7339405E1],"tree_param":{"num_deleted":"0","num_feature":"7","num_nodes":"17","size_leaf_vector":"1"}},{"base_weights":[-4.7420713E-4,6.8974704E-1,-1.5387686E-1,5.301599E-2,-5.1724147E-2,-9.8315394E-1,-2.8203988E-2,-5.068438E-2,-1.1623184E-2,1.7835182E-1,-4.8682523E-1,-1.0600153E-2,1.2135037E-2,-1.5138388E-2,-4.2604472E-2],"categories":[],"categories_nodes":[],"categories_segments":[],"categories_sizes":[],"default_left":[0,0,0,0,0,0,0,0,0,0,0,0,0,0,0],"id":42,"left_children":[1,3,5,-1,-1,7,9,-1,-1,11,13,-1,-1,-1,-1],"loss_changes":[2.8341358E1,3.2196373E1,2.2795395E1,0E0,0E0,4.2426872E-1,1.819978E1,0E0,0E0,3.3812666E0,3.7517471E0,0E0,0E0,0E0,0E0],"parents":[2147483647,0,0,1,1,2,2,5,5,6,6,9,9,10,10],"right_children":[2,4,6,-1,-1,8,10,-1,-1,12,14,-1,-1,-1,-1],"split_conditions":[8.5E-1,9.67E-3,2.14E-2,5.301599E-2,-5.1724147E-2,1.4484E-1,2.1232E-1,-5.068438E-2,-1.1623184E-2,9.687E-1,6.1428E-1,-1.0600153E-2,1.2135037E-2,-1.5138388E-2,-4.2604472E-2],"split_indices":[0,6,6,0,0,5,5,0,0,6,5,0,0,0,0],"split_type":[0,0,0,0,0,0,0,0,0,0,0,0,0,0,0],"sum_hessian":[2.6566745E2,4.76726E1,2.1799484E2,3.9556202E1,8.116401E0,2.779052E1,1.9020433E2,2.6367699E1,1.4228226E0,1.3156198E2,5.864234E1,1.8293705E1,1.1326828E2,4.0209553E1,1.8432789E1],"tree_param":{"num_deleted":"0","num_feature":"7","num_nodes":"15","size_leaf_vector":"1"}},{"base_weights":[-2.7413411E-2,6.4157414E-1,-1.7374074E-1,5.155036E-2,-5.1787525E-2,-9.527266E-1,-4.0883772E-2,-5.016463E-2,-5.222728E-1,2.2231878E-1,-4.1716966E-1,1.5899112E-2,-4.135498E-2,5.197973E-2,8.357621E-3,-1.0005816E-2,-3.549275E-2],"categories":[],"categories_nodes":[],"categories_segments":[],"categories_sizes":[],"default_left":[0,0,0,0,0,0,0,0,0,0,0,0,0,0,0,0,0],"id":43,"left_children":[1,3,5,-1,-1,7,9,-1,11,13,15,-1,-1,-1,-1,-1,-1],"loss_changes":[2.6230122E1,3.248638E1,2.2700087E1,0E0,0E0,1.7183113E-1,1.878607E1,0E0,1.6579763E0,4.8629785E0,4.815216E0,0E0,0E0,0E0,0E0,0E0,0E0],"parents":[2147483647,0,0,1,1,2,2,5,5,6,6,8,8,9,9,10,10],"right_children":[2,4,6,-1,-1,8,10,-1,12,14,16,-1,-1,-1,-1,-1,-1],"split_conditions":[8.5E-1,9.67E-3,4.5746E-1,5.155036E-2,-5.1787525E-2,2.14E-2,6.992E-2,-5.016463E-2,3.7545E-1,8.7284E-1,4.2295E-1,1.5899112E-2,-4.135498E-2,5.197973E-2,8.357621E-3,-1.0005816E-2,-3.549275E-2],"split_indices":[0,6,6,0,0,6,5,0,6,6,5,0,0,0,0,0,0],"split_type":[0,0,0,0,0,0,0,0,0,0,0,0,0,0,0,0,0],"sum_hessian":[2.6581317E2,4.709897E1,2.1871422E2,3.853697E1,8.561997E0,3.0967882E1,1.8774634E2,2.652158E1,4.4463024E0,1.10713905E2,7.703243E1,1.1721402E0,3.2741623E0,5.872315E0,1.0484159E2,4.5197792E1,3.1834635E1],"tree_param":{"num_deleted":"0","num_feature":"7","num_nodes":"17","size_leaf_vector":"1"}},{"base_weights":[-1.4254935E-2,6.527708E-1,-1.5259703E-1,5.1189836E-2,-5.0765056E-2,-9.518187E-1,-3.9643962E-2,-4.925414E-2,-8.234305E-3,1.7055722E-1,-4.6536657E-1,-9.043706E-3,1.1484839E-2,-1.7542506E-2,-4.654887E-2],"categories":[],"categories_nodes":[],"categories_segments":[],"categories_sizes":[],"default_left":[0,0,0,0,0,0,0,0,0,0,0,0,0,0,0],"id":44,"left_children":[1,3,5,-1,-1,7,9,-1,-1,11,13,-1,-1,-1,-1],"loss_changes":[2.4166475E1,2.8883646E1,1.9535507E1,0E0,0E0,5.396099E-1,1.7172731E1,0E0,0E0,2.7144547E0,3.0542307E0,0E0,0E0,0E0,0E0],"parents":[2147483647,0,0,1,1,2,2,5,5,6,6,9,9,10,10],"right_children":[2,4,6,-1,-1,8,10,-1,-1,12,14,-1,-1,-1,-1],"split_conditions":[8.5E-1,9.67E-3,2.14E-2,5.1189836E-2,-5.0765056E-2,1.4869E-1,1.8768E-1,-4.925414E-2,-8.234305E-3,9.687E-1,7.0544E-1,-9.043706E-3,1.1484839E-2,-1.7542506E-2,-4.654887E-2],"split_indices":[0,6,6,0,0,5,5,0,0,6,5,0,0,0,0],"split_type":[0,0,0,0,0,0,0,0,0,0,0,0,0,0,0],"sum_hessian":[2.5980902E2,4.3989952E1,2.1581906E2,3.630168E1,7.68827E0,2.5804878E1,1.9001418E2,2.4517298E1,1.2875804E0,1.2760728E2,6.240691E1,1.8084341E1,1.09522934E2,5.1495235E1,1.0911672E1],"tree_param":{"num_deleted":"0","num_feature":"7","num_nodes":"15","size_leaf_vector":"1"}},{"base_weights":[-1.16517935E-2,6.473546E-1,-1.4613293E-1,5.0913524E-2,-5.0530434E-2,-7.218988E-1,2.9793873E-2,-9.794688E-1,-4.2856476E-1,2.4114832E-1,-4.1568846E-1,-5.069549E-2,-1.2753247E-2,7.1419775E-3,-5.9993584E-2,-3.8964596E-2,1.29950335E-2,-1.5297945E-2,-4.4177726E-2],"categories":[],"categories_nodes":[],"categories_segments":[],"categories_sizes":[],"default_left":[0,0,0,0,0,0,0,0,0,0,0,0,0,0,0,0,0,0,0],"id":45,"left_children":[1,3,5,-1,-1,7,9,11,13,15,17,-1,-1,-1,-1,-1,-1,-1,-1],"loss_changes":[2.2807095E1,2.7853035E1,2.1663774E1,0E0,0E0,3.3613377E0,1.5599587E1,3.8679695E-1,1.1267158E1,2.3510752E0,2.4679012E0,0E0,0E0,0E0,0E0,0E0,0E0,0E0,0E0],"parents":[2147483647,0,0,1,1,2,2,5,5,6,6,7,7,8,8,9,9,10,10],"right_children":[2,4,6,-1,-1,8,10,12,14,16,18,-1,-1,-1,-1,-1,-1,-1,-1],"split_conditions":[8.5E-1,9.67E-3,9.7068E-1,5.0913524E-2,-5.0530434E-2,2.14E-2,2.1232E-1,1.4869E-1,8.8165E-1,7.43E-1,7.0544E-1,-5.069549E-2,-1.2753247E-2,7.1419775E-3,-5.9993584E-2,-3.8964596E-2,1.29950335E-2,-1.5297945E-2,-4.4177726E-2],"split_indices":[0,6,6,0,0,6,5,5,6,2,5,0,0,0,0,0,0,0,0],"split_type":[0,0,0,0,0,0,0,0,0,0,0,0,0,0,0,0,0,0,0],"sum_hessian":[2.5527946E2,4.261869E1,2.1266078E2,3.5142513E1,7.4761753E0,4.904499E1,1.6361578E2,2.4868994E1,2.4175997E1,1.11279205E2,5.233658E1,2.3358778E1,1.5102159E0,1.4355716E1,9.820281E0,1.2761904E0,1.1000301E2,4.37336E1,8.602981E0],"tree_param":{"num_deleted":"0","num_feature":"7","num_nodes":"19","size_leaf_vector":"1"}},{"base_weights":[-1.5679663E-2,1.2129921E-1,-5.335107E-1,-5.184033E-2,1.4976263E-1,-4.0919954E-1,-4.6096113E-2,1.3167925E-1,6.4045765E-2,-4.427669E-1,2.2123842E-2,9.857102E-3,-1.035689E-2,-1.5329351E-2,-2.715752E-2],"categories":[],"categories_nodes":[],"categories_segments":[],"categories_sizes":[],"default_left":[0,0,0,0,0,0,0,0,0,0,0,0,0,0,0],"id":46,"left_children":[1,3,5,-1,7,9,-1,11,-1,13,-1,-1,-1,-1,-1],"loss_changes":[1.7855341E1,6.7203245E0,2.1650143E0,0E0,3.8253155E0,1.3876224E0,0E0,4.328185E0,0E0,3.8854218E-1,0E0,0E0,0E0,0E0,0E0],"parents":[2147483647,0,0,1,1,2,2,4,4,5,5,7,7,9,9],"right_children":[2,4,6,-1,8,10,-1,12,-1,14,-1,-1,-1,-1,-1],"split_conditions":[2.6562E-1,9E-1,7.0544E-1,-5.184033E-2,2.5092E-1,6.9335E-1,-4.6096113E-2,3.477E-2,6.4045765E-2,4.2295E-1,2.2123842E-2,9.857102E-3,-1.035689E-2,-1.5329351E-2,-2.715752E-2],"split_indices":[5,1,5,0,5,5,0,5,0,5,0,0,0,0,0],"split_type":[0,0,0,0,0,0,0,0,0,0,0,0,0,0,0],"sum_hessian":[2.4981274E2,1.981603E2,5.165245E1,3.9036715E0,1.9425662E2,4.06848E1,1.0967653E1,1.9229881E2,1.9578078E0,3.9603996E1,1.0808009E0,1.6151137E2,3.0787437E1,1.852594E1,2.1078056E1],"tree_param":{"num_deleted":"0","num_feature":"7","num_nodes":"15","size_leaf_vector":"1"}},{"base_weights":[1.0620819E-2,4.786875E-2,-6.9392115E-2,2.49688E-2,-6.061926E-1,-2.6674756E-1,1.5755208E-1,-4.4744608E-1,-4.5263622E-2,2.7254358E-2,-3.0095348E-2,-4.862873E-2,1.0041717E-2,-2.5228253E-2,2.016223E-2],"categories":[],"categories_nodes":[],"categories_segments":[],"categories_sizes":[],"default_left":[0,0,0,0,0,0,0,0,0,0,0,0,0,0,0],"id":47,"left_children":[1,-1,3,5,7,9,11,13,-1,-1,-1,-1,-1,-1,-1],"loss_changes":[1.9299747E1,0E0,1.1920792E1,7.810788E0,1.2651834E0,1.7507145E1,6.9811153E0,1.4162188E0,0E0,0E0,0E0,0E0,0E0,0E0,0E0],"parents":[2147483647,0,0,2,2,3,3,4,4,5,5,6,6,7,7],"right_children":[2,-1,4,6,8,10,12,14,-1,-1,-1,-1,-1,-1,-1],"split_conditions":[7E-1,4.786875E-2,4.0829E-1,9.687E-1,7.0544E-1,8.5E-1,1E0,6.9409E-1,-4.5263622E-2,2.7254358E-2,-3.0095348E-2,-4.862873E-2,1.0041717E-2,-2.5228253E-2,2.016223E-2],"split_indices":[0,0,5,6,5,0,0,5,0,0,0,0,0,0,0],"split_type":[0,0,0,0,0,0,0,0,0,0,0,0,0,0,0],"sum_hessian":[2.5289648E2,1.8852987E1,2.340435E2,1.9986409E2,3.4179413E1,6.2136444E1,1.3772765E2,2.3958643E1,1.022077E1,1.7973663E1,4.416278E1,4.288253E0,1.3343939E2,2.283245E1,1.1261927E0],"tree_param":{"num_deleted":"0","num_feature":"7","num_nodes":"15","size_leaf_vector":"1"}},{"base_weights":[-4.1359223E-2,6.110077E-1,-1.6840585E-1,5.032726E-2,-5.021677E-2,-4.829297E-2,-5.8796287E-2,-4.4366878E-2,-4.258751E-2,-1.6412577E-2,-5.2611747E-5],"categories":[],"categories_nodes":[],"categories_segments":[],"categories_sizes":[],"default_left":[0,0,0,0,0,0,0,0,0,0,0],"id":48,"left_children":[1,3,5,-1,-1,-1,7,-1,9,-1,-1],"loss_changes":[2.0716694E1,2.7051994E1,1.820794E1,0E0,0E0,0E0,2.4436378E0,0E0,2.1624024E0,0E0,0E0],"parents":[2147483647,0,0,1,1,2,2,6,6,8,8],"right_children":[2,4,6,-1,-1,-1,8,-1,10,-1,-1],"split_conditions":[8.5E-1,9.67E-3,2.14E-2,5.032726E-2,-5.021677E-2,-4.829297E-2,7.43E-1,-4.4366878E-2,9.7068E-1,-1.6412577E-2,-5.2611747E-5],"split_indices":[0,6,6,0,0,0,2,0,6,0,0],"split_type":[0,0,0,0,0,0,0,0,0,0,0],"sum_hessian":[2.4771559E2,3.9757416E1,2.0795818E2,3.2239937E1,7.517477E0,2.4185698E1,1.8377248E2,2.4949367E0,1.8127754E2,2.2135426E1,1.591421E2],"tree_param":{"num_deleted":"0","num_feature":"7","num_nodes":"11","size_leaf_vector":"1"}},{"base_weights":[-1.5723517E-2,1.08663425E-1,-5.175751E-1,-4.653674E-2,1.3631552E-1,-4.0136853E-1,-4.4629183E-2,1.1582399E-1,1.2453444E0,-4.3566352E-1,1.9825835E-2,8.637269E-3,-1.2681103E-2,7.36859E-2,1.839088E-2,-1.2889737E-2,-2.8202435E-2],"categories":[],"categories_nodes":[],"categories_segments":[],"categories_sizes":[],"default_left":[0,0,0,0,0,0,0,0,0,0,0,0,0,0,0,0,0],"id":49,"left_children":[1,3,5,-1,7,9,-1,11,13,15,-1,-1,-1,-1,-1,-1,-1],"loss_changes":[1.5363874E1,5.798744E0,1.7718906E0,0E0,4.2440643E0,1.2435923E0,0E0,4.0540757E0,1.3943768E-1,7.222986E-1,0E0,0E0,0E0,0E0,0E0,0E0,0E0],"parents":[2147483647,0,0,1,1,2,2,4,4,5,5,7,7,8,8,9,9],"right_children":[2,4,6,-1,8,10,-1,12,14,16,-1,-1,-1,-1,-1,-1,-1],"split_conditions":[2.7346E-1,9E-1,7.0544E-1,-4.653674E-2,2.5092E-1,6.9335E-1,-4.4629183E-2,6.992E-2,2.6255E-1,4.2295E-1,1.9825835E-2,8.637269E-3,-1.2681103E-2,7.36859E-2,1.839088E-2,-1.2889737E-2,-2.8202435E-2],"split_indices":[5,1,5,0,5,5,0,5,5,5,0,0,0,0,0,0,0],"split_type":[0,0,0,0,0,0,0,0,0,0,0,0,0,0,0,0,0],"sum_hessian":[2.4422118E2,1.9634047E2,4.7880695E1,4.2417345E0,1.9209874E2,3.81341E1,9.746594E0,1.8969812E2,2.4006171E0,3.6997826E1,1.1362768E0,1.6483417E2,2.4863956E1,1.3657782E0,1.0348388E0,1.6770895E1,2.022693E1],"tree_param":{"num_deleted":"0","num_feature":"7","num_nodes":"17","size_leaf_vector":"1"}},{"base_weights":[1.298065E-2,4.760789E-2,-6.319613E-2,4.775474E-2,-4.6794197E-1,-2.4427673E-1,1.9853158E-1,-3.0897743E-1,-7.7275795E-1,2.7345112E-2,-2.737311E-2,-4.4984046E-2,1.1823466E-2,-2.0350613E-2,2.857661E-2,-2.8223498E-2,-4.720824E-2],"categories":[],"categories_nodes":[],"categories_segments":[],"categories_sizes":[],"default_left":[0,0,0,0,0,0,0,0,0,0,0,0,0,0,0,0,0],"id":50,"left_children":[1,-1,3,5,7,9,11,13,15,-1,-1,-1,-1,-1,-1,-1,-1],"loss_changes":[1.7789703E1,0E0,1.0358129E1,8.0423975E0,2.1651335E0,1.523543E1,5.2241836E0,3.191056E0,5.0359726E-2,0E0,0E0,0E0,0E0,0E0,0E0,0E0,0E0],"parents":[2147483647,0,0,2,2,3,3,4,4,5,5,6,6,7,7,8,8],"right_children":[2,-1,4,6,8,10,12,14,16,-1,-1,-1,-1,-1,-1,-1,-1],"split_conditions":[7E-1,4.760789E-2,2.6562E-1,1E0,6.1428E-1,8.5E-1,1E0,5.5714E-1,7.7142E-1,2.7345112E-2,-2.737311E-2,-4.4984046E-2,1.1823466E-2,-2.0350613E-2,2.857661E-2,-2.8223498E-2,-4.720824E-2],"split_indices":[0,0,5,6,5,0,0,5,5,0,0,0,0,0,0,0,0],"split_type":[0,0,0,0,0,0,0,0,0,0,0,0,0,0,0,0,0],"sum_hessian":[2.4681474E2,1.7654505E1,2.2916023E2,1.8054922E2,4.8611004E1,6.1266113E1,1.1928312E2,3.3272644E1,1.5338361E1,1.6750616E1,4.4515495E1,3.2245612E0,1.16058556E2,3.0423126E1,2.8495188E0,8.862318E0,6.4760427E0],"tree_param":{"num_deleted":"0","num_feature":"7","num_nodes":"17","size_leaf_vector":"1"}},{"base_weights":[1.6273428E-2,2.0374092E-1,-3.5148472E-1,-4.893532E-2,2.2929268E-1,-2.643199E-1,-4.8798855E-2,-3.400155E-2,2.4065632E-1,-6.460916E-1,-1.871279E-1,7.217844E-3,1.5318866E-2,-1.4583523E-2,-5.008961E-2,-1.0453678E-2,1.6045062E-2],"categories":[],"categories_nodes":[],"categories_segments":[],"categories_sizes":[],"default_left":[0,0,0,0,0,0,0,0,0,0,0,0,0,0,0,0,0],"id":51,"left_children":[1,3,5,-1,7,9,-1,-1,11,13,15,-1,-1,-1,-1,-1,-1],"loss_changes":[1.690043E1,5.12849E0,4.2483234E0,0E0,1.8137722E0,2.0603495E0,0E0,0E0,9.586382E-1,1.2257857E0,7.692106E-1,0E0,0E0,0E0,0E0,0E0,0E0],"parents":[2147483647,0,0,1,1,2,2,4,4,5,5,8,8,9,9,10,10],"right_children":[2,4,6,-1,8,10,-1,-1,12,14,16,-1,-1,-1,-1,-1,-1],"split_conditions":[3.477E-2,9E-1,7.0544E-1,-4.893532E-2,6.88E-1,9.8719E-1,-4.8798855E-2,-3.400155E-2,9.5343E-1,8.5729E-1,6.7907E-1,7.217844E-3,1.5318866E-2,-1.4583523E-2,-5.008961E-2,-1.0453678E-2,1.6045062E-2],"split_indices":[5,1,5,0,2,6,0,0,6,6,5,0,0,0,0,0,0],"split_type":[0,0,0,0,0,0,0,0,0,0,0,0,0,0,0,0,0],"sum_hessian":[2.4309862E2,1.6131372E2,8.17849E1,2.6230912E0,1.5869063E2,7.30167E1,8.768201E0,1.232379E0,1.5745825E2,1.1040974E1,6.1975723E1,6.5167046E1,9.229121E1,6.442068E0,4.5989056E0,5.9973473E1,2.002251E0],"tree_param":{"num_deleted":"0","num_feature":"7","num_nodes":"17","size_leaf_vector":"1"}},{"base_weights":[-2.0054923E-2,4.7028333E-2,-9.484016E-2,3.3986268E-3,-5.037385E-1,-5.0328292E-2,2.8159052E-2,-3.8376802E-1,-4.331399E-2,2.6426053E-2,-1.5006694E-3,-3.3271972E-2,-1.405709E-2],"categories":[],"categories_nodes":[],"categories_segments":[],"categories_sizes":[],"default_left":[0,0,0,0,0,0,0,0,0,0,0,0,0],"id":52,"left_children":[1,-1,3,5,7,-1,9,11,-1,-1,-1,-1,-1],"loss_changes":[1.7251049E1,0E0,8.941182E0,4.5403028E0,1.5428486E0,0E0,5.1702385E0,8.0127525E-1,0E0,0E0,0E0,0E0,0E0],"parents":[2147483647,0,0,2,2,3,3,4,4,6,6,7,7],"right_children":[2,-1,4,6,8,-1,10,12,-1,-1,-1,-1,-1],"split_conditions":[7E-1,4.7028333E-2,2.9915E-1,9E-1,7.0026E-1,-5.0328292E-2,8.5E-1,3.7721E-1,-4.331399E-2,2.6426053E-2,-1.5006694E-3,-3.3271972E-2,-1.405709E-2],"split_indices":[0,0,5,1,5,0,0,5,0,0,0,0,0],"split_type":[0,0,0,0,0,0,0,0,0,0,0,0,0],"sum_hessian":[2.378888E2,1.6346027E1,2.2154276E2,1.7942676E2,4.211601E1,3.3447318E0,1.7608202E2,3.319111E1,8.924899E0,1.749717E1,1.5858485E2,7.399122E0,2.5791988E1],"tree_param":{"num_deleted":"0","num_feature":"7","num_nodes":"13","size_leaf_vector":"1"}},{"base_weights":[-5.0492426E-3,7.0926845E-2,-5.245052E-1,-5.042407E-2,9.5236376E-2,-3.9431113E-1,-4.6122517E-2,1.5767857E-1,-9.928351E-2,-5.9387183E-1,-1.3277516E-1,-3.20849E-2,8.4300125E-3,-2.7404238E-2,-6.433842E-4,-1.638033E-2,-4.6060342E-2,2.6812708E-2,-2.0151025E-2],"categories":[],"categories_nodes":[],"categories_segments":[],"categories_sizes":[],"default_left":[0,0,0,0,0,0,0,0,0,0,0,0,0,0,0,0,0,0,0],"id":53,"left_children":[1,3,5,-1,7,9,-1,11,13,15,17,-1,-1,-1,-1,-1,-1,-1,-1],"loss_changes":[9.60709E0,5.670016E0,1.2454634E0,0E0,2.550073E0,1.2337592E0,0E0,1.4905875E0,1.9832395E0,9.164076E-1,2.4169436E0,0E0,0E0,0E0,0E0,0E0,0E0,0E0,0E0],"parents":[2147483647,0,0,1,1,2,2,4,4,5,5,7,7,8,8,9,9,10,10],"right_children":[2,4,6,-1,8,10,-1,12,14,16,18,-1,-1,-1,-1,-1,-1,-1,-1],"split_conditions":[4.0829E-1,9E-1,7.7142E-1,-5.042407E-2,3.072E-2,5.5714E-1,-4.6122517E-2,6.98E-1,9.8024E-1,5.0771E-1,6.1428E-1,-3.20849E-2,8.4300125E-3,-2.7404238E-2,-6.433842E-4,-1.638033E-2,-4.6060342E-2,2.6812708E-2,-2.0151025E-2],"split_indices":[5,1,5,0,5,5,0,2,6,5,5,0,0,0,0,0,0,0,0],"split_type":[0,0,0,0,0,0,0,0,0,0,0,0,0,0,0,0,0,0,0],"sum_hessian":[2.4148296E2,2.1142345E2,3.005952E1,3.7649417E0,2.076585E2,2.41495E1,5.9100213E0,1.5734053E2,5.0317974E1,1.2976948E1,1.1172552E1,1.3422778E0,1.5599825E2,7.2617273E0,4.3056248E1,8.259349E0,4.7176E0,2.9313269E0,8.241225E0],"tree_param":{"num_deleted":"0","num_feature":"7","num_nodes":"19","size_leaf_vector":"1"}},{"base_weights":[-3.6243254E-3,4.7735985E-2,-7.898293E-2,-3.3704934E-1,1.865324E-2,5.102142E-1,-6.395423E-1,-4.601854E-2,4.893146E-2,4.5691166E-2,-4.4437286E-2,-2.2413764E-2,-6.5115385E-2,-4.1072544E-2,3.2578816E-3],"categories":[],"categories_nodes":[],"categories_segments":[],"categories_sizes":[],"default_left":[0,0,0,0,0,0,0,0,0,0,0,0,0,0,0],"id":54,"left_children":[1,-1,3,5,7,9,11,-1,13,-1,-1,-1,-1,-1,-1],"loss_changes":[1.7333338E1,0E0,5.6117206E0,1.599011E1,4.660981E0,1.0205254E1,5.181671E0,0E0,2.288183E0,0E0,0E0,0E0,0E0,0E0,0E0],"parents":[2147483647,0,0,2,2,3,3,4,4,5,5,6,6,8,8],"right_children":[2,-1,4,6,8,10,12,-1,14,-1,-1,-1,-1,-1,-1],"split_conditions":[7E-1,4.7735985E-2,9.7068E-1,8.5E-1,1E0,9.67E-3,8.8165E-1,-4.601854E-2,7.75E-1,4.5691166E-2,-4.4437286E-2,-2.2413764E-2,-6.5115385E-2,-4.1072544E-2,3.2578816E-3],"split_indices":[0,0,6,0,0,6,6,0,2,0,0,0,0,0,0],"split_type":[0,0,0,0,0,0,0,0,0,0,0,0,0,0,0],"sum_hessian":[2.3796507E2,1.649735E1,2.2146773E2,6.0117214E1,1.6135051E2,1.5635756E1,4.4481457E1,4.1218452E0,1.5722867E2,1.2403926E1,3.2318301E0,3.5820435E1,8.661024E0,1.9692962E0,1.5525937E2],"tree_param":{"num_deleted":"0","num_feature":"7","num_nodes":"15","size_leaf_vector":"1"}},{"base_weights":[-1.0377808E-2,9.582826E-2,-3.6639297E-1,-4.911494E-2,1.2069774E-1,-2.6799822E-1,-4.178163E-2,-3.6370765E-2,1.314781E-1,-7.985115E-1,-2.0823069E-1,-2.8273467E-2,6.9312016E-3,-9.173649E-3,-4.6832707E-2,-4.1518193E-2,-7.496307E-3],"categories":[],"categories_nodes":[],"categories_segments":[],"categories_sizes":[],"default_left":[0,0,0,0,0,0,0,0,0,0,0,0,0,0,0,0,0],"id":55,"left_children":[1,3,5,-1,7,9,-1,-1,11,13,15,-1,-1,-1,-1,-1,-1],"loss_changes":[8.973334E0,5.021713E0,2.2934618E0,0E0,1.7380435E0,1.3095436E0,0E0,0E0,9.660232E-1,1.9859028E-1,1.4419563E0,0E0,0E0,0E0,0E0,0E0,0E0],"parents":[2147483647,0,0,1,1,2,2,4,4,5,5,8,8,9,9,10,10],"right_children":[2,4,6,-1,8,10,-1,-1,12,14,16,-1,-1,-1,-1,-1,-1],"split_conditions":[2.1232E-1,9E-1,7.0544E-1,-4.911494E-2,6.77E-1,2.2626E-1,-4.178163E-2,-3.6370765E-2,8.5E-1,2.1814E-1,8.412E-1,-2.8273467E-2,6.9312016E-3,-9.173649E-3,-4.6832707E-2,-4.1518193E-2,-7.496307E-3],"split_indices":[5,1,5,0,2,5,0,0,3,5,6,0,0,0,0,0,0],"split_type":[0,0,0,0,0,0,0,0,0,0,0,0,0,0,0,0,0],"sum_hessian":[2.3539233E2,1.8186838E2,5.3523952E1,3.2325966E0,1.7863579E2,4.5544804E1,7.9791484E0,1.40777E0,1.7722801E2,3.3600216E0,4.218478E1,1.0057409E0,1.7622227E2,1.0432787E0,2.316743E0,2.4800286E0,3.9704754E1],"tree_param":{"num_deleted":"0","num_feature":"7","num_nodes":"17","size_leaf_vector":"1"}},{"base_weights":[-2.9935947E-2,4.6096254E-2,-1.0033138E-1,-3.7028906E-1,2.0927887E-3,4.8678976E-1,-6.834645E-1,-4.5747567E-2,3.1828877E-2,4.552976E-2,-4.4974755E-2,-4.695756E-2,-1.5419905E-2,-3.8159575E-2,2.2538407E-3],"categories":[],"categories_nodes":[],"categories_segments":[],"categories_sizes":[],"default_left":[0,0,0,0,0,0,0,0,0,0,0,0,0,0,0],"id":56,"left_children":[1,-1,3,5,7,9,11,-1,13,-1,-1,-1,-1,-1,-1],"loss_changes":[1.5904754E1,0E0,6.1012897E0,1.6623074E1,4.417876E0,1.0704414E1,4.012905E0,0E0,1.6864353E0,0E0,0E0,0E0,0E0,0E0,0E0],"parents":[2147483647,0,0,2,2,3,3,4,4,5,5,6,6,8,8],"right_children":[2,-1,4,6,8,10,12,-1,14,-1,-1,-1,-1,-1,-1],"split_conditions":[7E-1,4.6096254E-2,9.687E-1,8.5E-1,1E0,9.67E-3,3.896E-1,-4.5747567E-2,7.75E-1,4.552976E-2,-4.4974755E-2,-4.695756E-2,-1.5419905E-2,-3.8159575E-2,2.2538407E-3],"split_indices":[0,0,6,0,0,6,6,0,2,0,0,0,0,0,0],"split_type":[0,0,0,0,0,0,0,0,0,0,0,0,0,0,0],"sum_hessian":[2.3498033E2,1.5348412E1,2.1963193E2,5.969075E1,1.5994116E2,1.5825675E1,4.3865078E1,4.0883927E0,1.5585278E2,1.238313E1,3.4425452E0,2.5189308E1,1.867577E1,1.6266681E0,1.542261E2],"tree_param":{"num_deleted":"0","num_feature":"7","num_nodes":"15","size_leaf_vector":"1"}},{"base_weights":[-2.4655566E-2,4.7945432E-2,-7.121174E-1,-4.891727E-2,6.942851E-2,-4.7014636E-1,-4.0026344E-2,1.4838152E-1,-1.5405928E-1,-4.524727E-2,2.3040201E-1,-3.477531E-2,8.0002025E-3,-9.818441E-3,5.2548315E-2,1.9643325E-2,-4.7771265E-3],"categories":[],"categories_nodes":[],"categories_segments":[],"categories_sizes":[],"default_left":[0,0,0,0,0,0,0,0,0,0,0,0,0,0,0,0,0],"id":57,"left_children":[1,3,5,-1,7,9,-1,11,13,-1,15,-1,-1,-1,-1,-1,-1],"loss_changes":[1.1660491E1,4.7339296E0,1.0098457E-1,0E0,3.6969972E0,2.765359E0,0E0,1.6254263E0,3.00277E0,0E0,2.4997579E-1,0E0,0E0,0E0,0E0,0E0,0E0],"parents":[2147483647,0,0,1,1,2,2,4,4,5,5,7,7,8,8,10,10],"right_children":[2,4,6,-1,8,10,-1,12,14,-1,16,-1,-1,-1,-1,-1,-1],"split_conditions":[5.0771E-1,9E-1,6.1428E-1,-4.891727E-2,3.477E-2,5.5714E-1,-4.0026344E-2,6.71E-1,4.9265E-1,-4.524727E-2,5.9038E-1,-3.477531E-2,8.0002025E-3,-9.818441E-3,5.2548315E-2,1.9643325E-2,-4.7771265E-3],"split_indices":[5,1,5,0,5,5,0,2,5,0,5,0,0,0,0,0,0],"split_type":[0,0,0,0,0,0,0,0,0,0,0,0,0,0,0,0,0],"sum_hessian":[2.3194432E2,2.1063046E2,2.131386E1,3.4054377E0,2.0722502E2,7.39421E0,1.391965E1,1.533767E2,5.3848335E1,4.382451E0,3.011759E0,1.28431E0,1.5209238E2,5.2830452E1,1.017884E0,1.8729066E0,1.1388524E0],"tree_param":{"num_deleted":"0","num_feature":"7","num_nodes":"17","size_leaf_vector":"1"}},{"base_weights":[-2.4296E-2,4.5627806E-2,-9.051981E-2,-3.4131014E-1,1.9286354E-3,4.777316E-1,-6.3939273E-1,-4.577033E-2,3.2480173E-2,4.5122214E-2,-4.447819E-2,-4.9072813E-2,-1.2223723E-2,-3.926457E-2,2.3671563E-3],"categories":[],"categories_nodes":[],"categories_segments":[],"categories_sizes":[],"default_left":[0,0,0,0,0,0,0,0,0,0,0,0,0,0,0],"id":58,"left_children":[1,-1,3,5,7,9,11,-1,13,-1,-1,-1,-1,-1,-1],"loss_changes":[1.4554159E1,0E0,5.072755E0,1.4692265E1,4.5373397E0,1.0266071E1,5.654167E0,0E0,1.9407969E0,0E0,0E0,0E0,0E0,0E0,0E0],"parents":[2147483647,0,0,2,2,3,3,4,4,5,5,6,6,8,8],"right_children":[2,-1,4,6,8,10,12,-1,14,-1,-1,-1,-1,-1,-1],"split_conditions":[7E-1,4.5627806E-2,9.7068E-1,8.5E-1,1E0,9.67E-3,2.14E-2,-4.577033E-2,7.75E-1,4.5122214E-2,-4.447819E-2,-4.9072813E-2,-1.2223723E-2,-3.926457E-2,2.3671563E-3],"split_indices":[0,0,6,0,0,6,6,0,2,0,0,0,0,0,0],"split_type":[0,0,0,0,0,0,0,0,0,0,0,0,0,0,0],"sum_hessian":[2.3225452E2,1.4489877E1,2.1776463E2,5.7928013E1,1.5983662E2,1.5296134E1,4.263188E1,4.218225E0,1.556184E2,1.1930295E1,3.365839E0,2.2048807E1,2.0583073E1,1.8525789E0,1.5376582E2],"tree_param":{"num_deleted":"0","num_feature":"7","num_nodes":"15","size_leaf_vector":"1"}},{"base_weights":[-3.9134778E-2,6.074429E-1,-1.4015505E-1,-4.5928E-2,7.753629E-1,-8.682327E-2,-5.8480644E-1,4.8602905E-2,2.7139831E-2,-9.771921E-2,4.001268E-2,-4.2138508E-1,-4.499409E-2,-4.12983E-3,-4.027135E-2,-4.46922E-2,-8.670534E-3],"categories":[],"categories_nodes":[],"categories_segments":[],"categories_sizes":[],"default_left":[0,0,0,0,0,0,0,0,0,0,0,0,0,0,0,0,0],"id":59,"left_children":[1,3,5,-1,7,9,11,-1,-1,13,-1,15,-1,-1,-1,-1,-1],"loss_changes":[1.5023053E1,8.679049E0,4.6589947E0,0E0,7.784157E-1,1.8036056E0,7.070122E-1,0E0,0E0,1.830326E0,0E0,1.69274E0,0E0,0E0,0E0,0E0,0E0],"parents":[2147483647,0,0,1,1,2,2,4,4,5,5,6,6,9,9,11,11],"right_children":[2,4,6,-1,8,10,12,-1,-1,14,-1,16,-1,-1,-1,-1,-1],"split_conditions":[8.5E-1,9E-1,5.0771E-1,-4.5928E-2,7E-1,4.9265E-1,7.7142E-1,4.8602905E-2,2.7139831E-2,4.4975E-1,4.001268E-2,5.5714E-1,-4.499409E-2,-4.12983E-3,-4.027135E-2,-4.46922E-2,-8.670534E-3],"split_indices":[0,1,5,0,0,5,5,0,0,5,0,5,0,0,0,0,0],"split_type":[0,0,0,0,0,0,0,0,0,0,0,0,0,0,0,0,0],"sum_hessian":[2.2769717E2,3.0090515E1,1.9760666E2,2.53976E0,2.7550755E1,1.7751112E2,2.009554E1,1.3203804E1,1.434695E1,1.7623627E2,1.2748634E0,1.4771407E1,5.324133E0,1.736425E2,2.5937595E0,4.187843E0,1.0583565E1],"tree_param":{"num_deleted":"0","num_feature":"7","num_nodes":"17","size_leaf_vector":"1"}},{"base_weights":[-5.745591E-3,4.5110594E-2,-6.7739576E-2,1.9771064E-4,-5.2299976E-1,-4.057832E-2,1.659116E-2,-3.4008947E-1,-4.67814E-2,2.2745105E-2,-1.0980731E-3,-2.8252942E-2,-2.050214E-3],"categories":[],"categories_nodes":[],"categories_segments":[],"categories_sizes":[],"default_left":[0,0,0,0,0,0,0,0,0,0,0,0,0],"id":60,"left_children":[1,-1,3,5,7,-1,9,11,-1,-1,-1,-1,-1],"loss_changes":[1.3013518E1,0E0,6.6910877E0,2.5318172E0,1.8019586E0,0E0,3.161058E0,1.392137E0,0E0,0E0,0E0,0E0,0E0],"parents":[2147483647,0,0,2,2,3,3,4,4,6,6,7,7],"right_children":[2,-1,4,6,8,-1,10,12,-1,-1,-1,-1,-1],"split_conditions":[7E-1,4.5110594E-2,4.2295E-1,9E-1,7.0544E-1,-4.057832E-2,8.5E-1,5.5714E-1,-4.67814E-2,2.2745105E-2,-1.0980731E-3,-2.8252942E-2,-2.050214E-3],"split_indices":[0,0,5,1,5,0,0,5,0,0,0,0,0],"split_type":[0,0,0,0,0,0,0,0,0,0,0,0,0],"sum_hessian":[2.2910988E2,1.3777203E1,2.1533267E2,1.8824146E2,2.7091217E1,2.7660847E0,1.8547537E2,2.0034502E1,7.056714E0,1.4121886E1,1.7135349E2,1.0926437E1,9.108066E0],"tree_param":{"num_deleted":"0","num_feature":"7","num_nodes":"13","size_leaf_vector":"1"}},{"base_weights":[-1.6871328E-2,4.4737227E-2,-7.448353E-2,-4.8348866E-2,-5.5637687E-2,3.9309213E-1,-9.080048E-2,4.809305E-2,-4.759681E-2,-4.3636896E-2,3.6149935E-4],"categories":[],"categories_nodes":[],"categories_segments":[],"categories_sizes":[],"default_left":[0,0,0,0,0,0,0,0,0,0,0],"id":61,"left_children":[1,-1,3,-1,5,7,9,-1,-1,-1,-1],"loss_changes":[1.2184125E1,0E0,3.611725E0,0E0,3.4199436E0,1.2982466E1,1.5314838E1,0E0,0E0,0E0,0E0],"parents":[2147483647,0,0,2,2,4,4,5,5,6,6],"right_children":[2,-1,4,-1,6,8,10,-1,-1,-1,-1],"split_conditions":[7E-1,4.4737227E-2,1E0,-4.8348866E-2,8.5E-1,9.67E-3,2.14E-2,4.809305E-2,-4.759681E-2,-4.3636896E-2,3.6149935E-4],"split_indices":[0,0,1,0,0,6,6,0,0,0,0],"split_type":[0,0,0,0,0,0,0,0,0,0,0],"sum_hessian":[2.2972043E2,1.2791178E1,2.1692924E2,3.4455683E0,2.1348369E2,1.4773431E1,1.9871025E2,1.058307E1,4.1903605E0,2.1256403E1,1.7745386E2],"tree_param":{"num_deleted":"0","num_feature":"7","num_nodes":"11","size_leaf_vector":"1"}},{"base_weights":[4.3021347E-3,4.3867614E-2,-5.1041175E-2,1.9730192E-2,-4.9057424E-1,-2.3218955E-1,1.24724925E-1,-3.6843562E-1,-4.448648E-2,2.3422925E-2,-2.4004174E-2,-4.2662818E-2,7.754948E-3,-2.1348564E-2,3.1835835E-3],"categories":[],"categories_nodes":[],"categories_segments":[],"categories_sizes":[],"default_left":[0,0,0,0,0,0,0,0,0,0,0,0,0,0,0],"id":62,"left_children":[1,-1,3,5,7,9,11,13,-1,-1,-1,-1,-1,-1,-1],"loss_changes":[1.0831242E1,0E0,6.5693417E0,4.8586235E0,1.0998669E0,9.61505E0,3.9800713E0,6.3751674E-1,0E0,0E0,0E0,0E0,0E0,0E0,0E0],"parents":[2147483647,0,0,2,2,3,3,4,4,5,5,6,6,7,7],"right_children":[2,-1,4,6,8,10,12,14,-1,-1,-1,-1,-1,-1,-1],"split_conditions":[7E-1,4.3867614E-2,3.9645E-1,9.687E-1,7.7142E-1,8.5E-1,1E0,6.9547E-1,-4.448648E-2,2.3422925E-2,-2.4004174E-2,-4.2662818E-2,7.754948E-3,-2.1348564E-2,3.1835835E-3],"split_indices":[0,0,5,6,5,0,0,5,0,0,0,0,0,0,0],"split_type":[0,0,0,0,0,0,0,0,0,0,0,0,0,0,0],"sum_hessian":[2.2224136E2,1.2362823E1,2.0987854E2,1.8159427E2,2.828427E1,5.3063824E1,1.2853044E2,2.3129768E1,5.1545014E0,1.3635281E1,3.9428543E1,3.055575E0,1.2547487E2,2.0380762E1,2.749005E0],"tree_param":{"num_deleted":"0","num_feature":"7","num_nodes":"15","size_leaf_vector":"1"}},{"base_weights":[-1.2828957E-2,4.335968E-2,-6.6788614E-2,-4.178478E-2,-5.0420906E-2,4.186848E-1,-8.649415E-2,4.7777254E-2,-4.632753E-2,-3.9111476E-2,5.930785E-4],"categories":[],"categories_nodes":[],"categories_segments":[],"categories_sizes":[],"default_left":[0,0,0,0,0,0,0,0,0,0,0],"id":63,"left_children":[1,-1,3,-1,5,7,9,-1,-1,-1,-1],"loss_changes":[1.0644293E1,0E0,2.613182E0,0E0,3.5501544E0,1.1717744E1,1.32609415E1,0E0,0E0,0E0,0E0],"parents":[2147483647,0,0,2,2,4,4,5,5,6,6],"right_children":[2,-1,4,-1,6,8,10,-1,-1,-1,-1],"split_conditions":[7E-1,4.335968E-2,1E0,-4.178478E-2,8.5E-1,9.67E-3,4.5746E-1,4.7777254E-2,-4.632753E-2,-3.9111476E-2,5.930785E-4],"split_indices":[0,0,1,0,0,6,6,0,0,0,0],"split_type":[0,0,0,0,0,0,0,0,0,0,0],"sum_hessian":[2.219381E2,1.1951481E1,2.0998662E2,3.3334484E0,2.0665317E2,1.3999075E1,1.9265408E2,1.0212946E1,3.7861288E0,2.3000834E1,1.6965326E2],"tree_param":{"num_deleted":"0","num_feature":"7","num_nodes":"11","size_leaf_vector":"1"}},{"base_weights":[-1.1475484E-2,6.765699E-2,-6.026785E-1,-4.715506E-2,8.771757E-2,-4.536015E-1,-4.5990624E-2,1.2578319E-1,-5.4819755E-2,-5.2979314E-1,2.3175199E-2,9.758935E-4,9.402871E-3,-2.9145041E-2,2.8741544E-3,-3.550757E-2,-1.2218012E-2],"categories":[],"categories_nodes":[],"categories_segments":[],"categories_sizes":[],"default_left":[0,0,0,0,0,0,0,0,0,0,0,0,0,0,0,0,0],"id":64,"left_children":[1,3,5,-1,7,9,-1,11,13,15,-1,-1,-1,-1,-1,-1,-1],"loss_changes":[1.0409233E1,4.0642676E0,8.244543E-1,0E0,1.056548E0,1.6317964E0,0E0,1.0087247E0,2.492962E0,7.934432E-1,0E0,0E0,0E0,0E0,0E0,0E0,0E0],"parents":[2147483647,0,0,1,1,2,2,4,4,5,5,7,7,8,8,9,9],"right_children":[2,4,6,-1,8,10,-1,12,14,16,-1,-1,-1,-1,-1,-1,-1],"split_conditions":[4.2295E-1,9E-1,7.0544E-1,-4.715506E-2,6.992E-2,6.9409E-1,-4.5990624E-2,9.6798E-1,1.3542E-1,5.5714E-1,2.3175199E-2,9.758935E-4,9.402871E-3,-2.9145041E-2,2.8741544E-3,-3.550757E-2,-1.2218012E-2],"split_indices":[5,1,5,0,5,5,0,6,5,5,0,0,0,0,0,0,0],"split_type":[0,0,0,0,0,0,0,0,0,0,0,0,0,0,0,0,0],"sum_hessian":[2.2062708E2,1.9536328E2,2.5263796E1,2.9064875E0,1.9245679E2,1.8838562E1,6.425235E0,1.519855E2,4.0471287E1,1.778346E1,1.0551012E0,5.6642914E1,9.534259E1,6.3624997E0,3.4108788E1,9.985736E0,7.797725E0],"tree_param":{"num_deleted":"0","num_feature":"7","num_nodes":"17","size_leaf_vector":"1"}},{"base_weights":[-5.8375802E-2,5.4891753E-1,-1.4283285E-1,4.9624544E-2,-4.7681805E-2,-4.3106172E-2,-4.191508E-2,6.931742E-1,-8.574915E-2,4.0440867E-3,3.931367E-2,-5.073039E-2,-1.3396604E-3],"categories":[],"categories_nodes":[],"categories_segments":[],"categories_sizes":[],"default_left":[0,0,0,0,0,0,0,0,0,0,0,0,0],"id":65,"left_children":[1,3,5,-1,-1,-1,7,9,11,-1,-1,-1,-1],"loss_changes":[1.1334391E1,1.8942024E1,1.400672E1,0E0,0E0,0E0,5.559883E0,4.9028587E-1,8.843579E0,0E0,0E0,0E0,0E0],"parents":[2147483647,0,0,1,1,2,2,6,6,7,7,8,8],"right_children":[2,4,6,-1,-1,-1,8,10,12,-1,-1,-1,-1],"split_conditions":[8.5E-1,9.67E-3,4.5746E-1,4.9624544E-2,-4.7681805E-2,-4.3106172E-2,8.8165E-1,5.9924E-1,9.7068E-1,4.0440867E-3,3.931367E-2,-5.073039E-2,-1.3396604E-3],"split_indices":[0,6,6,0,0,0,6,6,6,0,0,0,0],"split_type":[0,0,0,0,0,0,0,0,0,0,0,0,0],"sum_hessian":[2.1845688E2,2.6000364E1,1.9245651E2,2.033629E1,5.664074E0,2.2751627E1,1.697049E2,8.716538E0,1.6098836E2,1.3970724E0,7.3194656E0,8.640861E0,1.5234749E2],"tree_param":{"num_deleted":"0","num_feature":"7","num_nodes":"13","size_leaf_vector":"1"}},{"base_weights":[-2.8543793E-2,4.326813E-2,-8.014192E-2,8.356787E-3,-4.1052577E-1,-4.576876E-2,2.6555888E-2,-3.3179307E-1,-4.3734137E-2,2.3707155E-2,-6.674436E-4,-2.1174751E-2,-3.7546244E-3],"categories":[],"categories_nodes":[],"categories_segments":[],"categories_sizes":[],"default_left":[0,0,0,0,0,0,0,0,0,0,0,0,0],"id":66,"left_children":[1,-1,3,5,7,-1,9,11,-1,-1,-1,-1,-1],"loss_changes":[1.0223907E1,0E0,6.1160116E0,2.812772E0,1.3246269E0,0E0,2.9290357E0,8.954663E-1,0E0,0E0,0E0,0E0,0E0],"parents":[2147483647,0,0,2,2,3,3,4,4,6,6,7,7],"right_children":[2,-1,4,6,8,-1,10,12,-1,-1,-1,-1,-1],"split_conditions":[7E-1,4.326813E-2,2.6562E-1,9E-1,7.7142E-1,-4.576876E-2,8.5E-1,5.5714E-1,-4.3734137E-2,2.3707155E-2,-6.674436E-4,-2.1174751E-2,-3.7546244E-3],"split_indices":[0,0,5,1,5,0,0,5,0,0,0,0,0],"split_type":[0,0,0,0,0,0,0,0,0,0,0,0,0],"sum_hessian":[2.1915826E2,1.1099251E1,2.0805902E2,1.6487047E2,4.318854E1,2.2329855E0,1.6263748E2,3.839125E1,4.7972913E0,1.24223E1,1.5021518E2,2.780767E1,1.0583582E1],"tree_param":{"num_deleted":"0","num_feature":"7","num_nodes":"13","size_leaf_vector":"1"}},{"base_weights":[2.129374E-2,4.271176E-2,-2.56342E-2,4.2205863E-2,-5.054079E-1,-1.682406E-1,1.3050357E-1,-3.9266253E-1,-4.2934526E-2,2.0548701E-2,-1.7482094E-2,-3.9376717E-2,7.7188895E-3,-3.0222083E-2,-7.767297E-3],"categories":[],"categories_nodes":[],"categories_segments":[],"categories_sizes":[],"default_left":[0,0,0,0,0,0,0,0,0,0,0,0,0,0,0],"id":67,"left_children":[1,-1,3,5,7,9,11,13,-1,-1,-1,-1,-1,-1,-1],"loss_changes":[8.544663E0,0E0,6.7711406E0,3.4152567E0,6.8919134E-1,5.860612E0,2.9533656E0,9.8046255E-1,0E0,0E0,0E0,0E0,0E0,0E0,0E0],"parents":[2147483647,0,0,2,2,3,3,4,4,5,5,6,6,7,7],"right_children":[2,-1,4,6,8,10,12,14,-1,-1,-1,-1,-1,-1,-1],"split_conditions":[7E-1,4.271176E-2,4.2295E-1,1E0,7.7142E-1,8.5E-1,1E0,5.5714E-1,-4.2934526E-2,2.0548701E-2,-1.7482094E-2,-3.9376717E-2,7.7188895E-3,-3.0222083E-2,-7.767297E-3],"split_indices":[0,0,5,6,5,0,0,5,0,0,0,0,0,0,0],"split_type":[0,0,0,0,0,0,0,0,0,0,0,0,0,0,0],"sum_hessian":[2.1703918E2,1.065828E1,2.063809E2,1.8161285E2,2.476805E1,5.341043E1,1.2820244E2,2.0376598E1,4.3914514E0,1.2436168E1,4.0974262E1,2.438735E0,1.25763695E2,9.950173E0,1.0426425E1],"tree_param":{"num_deleted":"0","num_feature":"7","num_nodes":"15","size_leaf_vector":"1"}},{"base_weights":[-2.1287996E-2,4.1537225E-2,-6.6911474E-2,-1.6528081E-2,-5.70519E-1,-4.574933E-2,-1.7051406E-4,-4.2463183E-1,-4.2834844E-2,2.2278326E-2,-1.6542281E-3,-4.27299E-2,-1.0004639E-2],"categories":[],"categories_nodes":[],"categories_segments":[],"categories_sizes":[],"default_left":[0,0,0,0,0,0,0,0,0,0,0,0,0],"id":68,"left_children":[1,-1,3,5,7,-1,9,11,-1,-1,-1,-1,-1],"loss_changes":[8.519661E0,0E0,5.25803E0,2.788477E0,4.232149E-1,0E0,2.7634172E0,1.2258327E0,0E0,0E0,0E0,0E0,0E0],"parents":[2147483647,0,0,2,2,3,3,4,4,6,6,7,7],"right_children":[2,-1,4,6,8,-1,10,12,-1,-1,-1,-1,-1],"split_conditions":[7E-1,4.1537225E-2,5.0771E-1,1E0,7.7142E-1,-4.574933E-2,8.5E-1,5.5714E-1,-4.2834844E-2,2.2278326E-2,-1.6542281E-3,-4.27299E-2,-1.0004639E-2],"split_indices":[0,0,5,1,5,0,0,5,0,0,0,0,0],"split_type":[0,0,0,0,0,0,0,0,0,0,0,0,0],"sum_hessian":[2.1673836E2,1.014112E1,2.0659724E2,1.8874689E2,1.7850355E1,2.392624E0,1.8635426E2,1.3468313E1,4.382043E0,1.1952382E1,1.7440189E2,3.6578832E0,9.81043E0],"tree_param":{"num_deleted":"0","num_feature":"7","num_nodes":"13","size_leaf_vector":"1"}},{"base_weights":[-1.1373653E-2,4.1935217E-2,-5.6123234E-2,7.91951E-3,-5.22811E-1,-2.4671213E-1,9.89851E-2,-4.229366E-1,-4.1894108E-2,-3.6571105E-3,-5.273176E-2,-3.9607894E-2,6.0855015E-3,-2.5717845E-2,1.0580693E-2],"categories":[],"categories_nodes":[],"categories_segments":[],"categories_sizes":[],"default_left":[0,0,0,0,0,0,0,0,0,0,0,0,0,0,0],"id":69,"left_children":[1,-1,3,5,7,9,11,13,-1,-1,-1,-1,-1,-1,-1],"loss_changes":[8.234081E0,0E0,6.1428866E0,4.2352214E0,4.260044E-1,6.671135E0,2.8195891E0,1.3183472E0,0E0,0E0,0E0,0E0,0E0,0E0,0E0],"parents":[2147483647,0,0,2,2,3,3,4,4,5,5,6,6,7,7],"right_children":[2,-1,4,6,8,10,12,14,-1,-1,-1,-1,-1,-1,-1],"split_conditions":[7E-1,4.1935217E-2,4.2295E-1,9.6798E-1,7.7142E-1,8.8165E-1,1E0,6.9547E-1,-4.1894108E-2,-3.6571105E-3,-5.273176E-2,-3.9607894E-2,6.0855015E-3,-2.5717845E-2,1.0580693E-2],"split_indices":[0,0,5,6,5,6,0,5,0,0,0,0,0,0,0],"split_type":[0,0,0,0,0,0,0,0,0,0,0,0,0,0,0],"sum_hessian":[2.1421748E2,9.825566E0,2.0439192E2,1.8059254E2,2.379937E1,4.7122505E1,1.3347005E2,1.98496E1,3.9497705E0,3.968691E1,7.435596E0,2.4770157E0,1.3099303E2,1.7515535E1,2.3340654E0],"tree_param":{"num_deleted":"0","num_feature":"7","num_nodes":"15","size_leaf_vector":"1"}},{"base_weights":[8.809823E-3,4.058356E-2,-3.31431E-2,4.891754E-2,-2.9464662E-1,-2.3565295E-1,1.7765255E-1,-4.7636446E-2,-2.3997171E-1,1.8538853E-2,-2.1638887E-2,-3.566877E-2,9.957105E-3,1.668628E-2,-1.5746906E-2],"categories":[],"categories_nodes":[],"categories_segments":[],"categories_sizes":[],"default_left":[0,0,0,0,0,0,0,0,0,0,0,0,0,0,0],"id":70,"left_children":[1,-1,3,5,7,9,11,-1,13,-1,-1,-1,-1,-1,-1],"loss_changes":[7.2591753E0,0E0,4.4139185E0,5.790013E0,1.5384169E0,6.0542135E0,2.2215898E0,0E0,2.1127393E0,0E0,0E0,0E0,0E0,0E0,0E0],"parents":[2147483647,0,0,2,2,3,3,4,4,5,5,6,6,8,8],"right_children":[2,-1,4,6,8,10,12,-1,14,-1,-1,-1,-1,-1,-1],"split_conditions":[7E-1,4.058356E-2,2.1232E-1,9.9992E-1,2.2626E-1,8.5E-1,1E0,-4.7636446E-2,2.6562E-1,1.8538853E-2,-2.1638887E-2,-3.566877E-2,9.957105E-3,1.668628E-2,-1.5746906E-2],"split_indices":[0,0,5,6,5,0,0,0,5,0,0,0,0,0,0],"split_type":[0,0,0,0,0,0,0,0,0,0,0,0,0,0,0],"sum_hessian":[2.1371982E2,9.702077E0,2.0401775E2,1.5590666E2,4.8111073E1,4.8302597E1,1.07604065E2,2.430581E0,4.5680492E1,1.1633289E1,3.6669308E1,1.77583E0,1.0582824E2,4.880409E0,4.0800083E1],"tree_param":{"num_deleted":"0","num_feature":"7","num_nodes":"15","size_leaf_vector":"1"}},{"base_weights":[2.253318E-2,1.32944E-1,-1.9175875E-1,-4.3870676E-2,1.5256172E-1,-6.3845634E-1,-1.12555884E-1,-2.6090825E-2,1.6168495E-1,-2.9521602E-1,-4.71316E-2,-6.399145E-2,-3.964363E-2,3.1577807E-3,1.0756279E-2,-2.5938738E-2,2.1952348E-2,4.257418E-3,-6.8827155E-3],"categories":[],"categories_nodes":[],"categories_segments":[],"categories_sizes":[],"default_left":[0,0,0,0,0,0,0,0,0,0,0,0,0,0,0,0,0,0,0],"id":71,"left_children":[1,3,5,-1,7,9,11,-1,13,15,-1,17,-1,-1,-1,-1,-1,-1,-1],"loss_changes":[5.052083E0,2.9246345E0,2.4984782E0,0E0,9.393804E-1,8.417163E-1,2.028178E0,0E0,7.124069E-1,1.2940979E0,0E0,6.6888577E-1,0E0,0E0,0E0,0E0,0E0,0E0,0E0],"parents":[2147483647,0,0,1,1,2,2,4,4,5,5,6,6,8,8,9,9,11,11],"right_children":[2,4,6,-1,8,10,12,-1,14,16,-1,18,-1,-1,-1,-1,-1,-1,-1],"split_conditions":[3.477E-2,9E-1,9.8719E-1,-4.3870676E-2,6.98E-1,8.5729E-1,7.7142E-1,-2.6090825E-2,9.5522E-1,8.2339E-1,-4.71316E-2,2.1232E-1,-3.964363E-2,3.1577807E-3,1.0756279E-2,-2.5938738E-2,2.1952348E-2,4.257418E-3,-6.8827155E-3],"split_indices":[5,1,6,0,2,6,5,0,6,6,0,5,0,0,0,0,0,0,0],"split_type":[0,0,0,0,0,0,0,0,0,0,0,0,0,0,0,0,0,0,0],"sum_hessian":[2.1144962E2,1.3979953E2,7.165008E1,1.8299005E0,1.3796964E2,9.727389E0,6.192269E1,1.0914882E0,1.3687814E2,5.4960446E0,4.2313447E0,5.8818027E1,3.1046653E0,4.890079E1,8.797735E1,4.438227E0,1.0578175E0,1.9394823E1,3.9423203E1],"tree_param":{"num_deleted":"0","num_feature":"7","num_nodes":"19","size_leaf_vector":"1"}},{"base_weights":[-1.2970787E-2,4.0883668E-2,-5.3766966E-2,-1.6356854E-3,-3.5465294E-1,-2.2565436E-1,8.077791E-2,-2.6009148E-1,-4.1014206E-2,2.2604167E-2,-2.2289863E-2,-3.9615393E-2,5.2096862E-3,-2.057276E-2,-2.6902903E-4],"categories":[],"categories_nodes":[],"categories_segments":[],"categories_sizes":[],"default_left":[0,0,0,0,0,0,0,0,0,0,0,0,0,0,0],"id":72,"left_children":[1,-1,3,5,7,9,11,13,-1,-1,-1,-1,-1,-1,-1],"loss_changes":[7.2820373E0,0E0,3.2076328E0,3.2552638E0,1.1163547E0,7.276369E0,2.7180848E0,1.0220114E0,0E0,0E0,0E0,0E0,0E0,0E0,0E0],"parents":[2147483647,0,0,2,2,3,3,4,4,5,5,6,6,7,7],"right_children":[2,-1,4,6,8,10,12,14,-1,-1,-1,-1,-1,-1,-1],"split_conditions":[7E-1,4.0883668E-2,3.5784E-1,9.687E-1,7.7142E-1,8.5E-1,1E0,5.5714E-1,-4.1014206E-2,2.2604167E-2,-2.2289863E-2,-3.9615393E-2,5.2096862E-3,-2.057276E-2,-2.6902903E-4],"split_indices":[0,0,5,6,5,0,0,5,0,0,0,0,0,0,0],"split_type":[0,0,0,0,0,0,0,0,0,0,0,0,0,0,0],"sum_hessian":[2.1259375E2,9.061017E0,2.0353273E2,1.7433331E2,2.919942E1,4.641872E1,1.2791459E2,2.5565998E1,3.633424E0,1.112265E1,3.529607E1,2.483355E0,1.2543123E2,1.56503105E1,9.915688E0],"tree_param":{"num_deleted":"0","num_feature":"7","num_nodes":"15","size_leaf_vector":"1"}},{"base_weights":[1.5970936E-2,3.9192434E-2,-2.173472E-2,2.1287554E-4,-7.069752E-1,-1.8322034E-1,5.9742946E-2,-1.4371002E-2,-4.044873E-2,1.6501341E-3,-5.5740472E-2,9.032686E-3,-5.664611E-3],"categories":[],"categories_nodes":[],"categories_segments":[],"categories_sizes":[],"default_left":[0,0,0,0,0,0,0,0,0,0,0,0,0],"id":73,"left_children":[1,-1,3,5,7,9,11,-1,-1,-1,-1,-1,-1],"loss_changes":[6.068801E0,0E0,3.0111504E0,2.1402397E0,3.339815E-2,9.710048E0,3.1162944E0,0E0,0E0,0E0,0E0,0E0,0E0],"parents":[2147483647,0,0,2,2,3,3,4,4,5,5,6,6],"right_children":[2,-1,4,6,8,10,12,-1,-1,-1,-1,-1,-1],"split_conditions":[7E-1,3.9192434E-2,7.0544E-1,9.687E-1,7.7142E-1,8.8165E-1,4.29E-3,-1.4371002E-2,-4.044873E-2,1.6501341E-3,-5.5740472E-2,9.032686E-3,-5.664611E-3],"split_indices":[0,0,5,6,5,6,5,0,0,0,0,0,0],"split_type":[0,0,0,0,0,0,0,0,0,0,0,0,0],"sum_hessian":[2.0801784E2,8.810144E0,1.992077E2,1.9399394E2,5.213751E0,4.7022675E1,1.4697127E2,1.7662938E0,3.447457E0,3.8947487E1,8.075188E0,8.649067E1,6.048061E1],"tree_param":{"num_deleted":"0","num_feature":"7","num_nodes":"13","size_leaf_vector":"1"}},{"base_weights":[6.7582824E-3,3.9198976E-2,-2.99423E-2,1.5623163E-2,-5.171386E-1,-4.5003217E-2,3.222485E-2,-4.118862E-2,-3.8753062E-1,1.0316181E-3,5.310157E-2,1.9603323E-2,-3.002314E-2],"categories":[],"categories_nodes":[],"categories_segments":[],"categories_sizes":[],"default_left":[0,0,0,0,0,0,0,0,0,0,0,0,0],"id":74,"left_children":[1,-1,3,5,7,-1,9,-1,11,-1,-1,-1,-1],"loss_changes":[6.0077434E0,0E0,4.47675E0,2.8421552E0,3.6614466E-1,0E0,2.159427E0,0E0,2.5611506E0,0E0,0E0,0E0,0E0],"parents":[2147483647,0,0,2,2,3,3,4,4,6,6,8,8],"right_children":[2,-1,4,6,8,-1,10,-1,12,-1,-1,-1,-1],"split_conditions":[7E-1,3.9198976E-2,5.0771E-1,1E0,5.5714E-1,-4.5003217E-2,4.9265E-1,-4.118862E-2,6.1428E-1,